"5"",0.0683960840106,0.368370562792,0.401032060385,0.439901858568,-0.417397350073,0.0203000456095,0.296239942312,-0.350967973471,0.446680933237,-0.247777223587,0.0229513514787,0.148787394166,-0.0791499018669,-0.703144490719,0.249439999461,0.490405321121,0.208349749446,-0.35870346427,0.355666995049,0.263229876757,-0.384872555733,0.030073447153,-0.255433827639,0.496788799763,0.587168872356,0.335586965084,0.0298689659685,0.022750036791,-0.432718068361,0.106331497431,0.0631887167692,-0.243874177337,0.353190153837,0.0155775686726,0.120542496443,0.0556247420609,0.362916827202,-0.589276075363,-0.298822194338,-0.315591216087,0.267314970493,0.175686076283,-0.123330555856,-0.270507007837,0.31826248765,-0.21951289475,-0.0795898959041,-0.00489727361128,-0.268231987953,-0.118677087128,0.274471014738,-0.319278657436,0.0559499375522,0.227213159204,-0.09722186625,-0.252492547035,-0.142673254013,0.234838441014,-0.289705902338,0.0417084135115,0.164177656174,-0.137648120522,0.352344214916,-0.426556438208,-0.361668914557,0.100340440869,-0.0110823344439,-0.0907410979271,0.209270238876,0.420018613338,-0.0174147542566,-0.229206383228,0.446465760469,0.00704142963514,-0.0694279298186,-0.206918731332,0.67299079895,0.31617462635,0.0449886135757,0.282208502293,0.352651447058,0.128778859973,-0.267647743225,-0.170441031456,-0.267961263657,-0.0377966202796,0.233865454793,-0.0343723073602,-0.2618919909,-0.131804391742,-0.220155149698,-0.171544447541,-0.376862287521,0.579259037971,0.339587271214,0.00298481830396,-0.133357718587,-0.239783853292,0.0258833039552,0.101480327547
"CX~",-0.343634843826,0.00210673594847,-0.198402166367,-0.222134560347,0.375414907932,-0.468601942062,0.559844076633,-0.281899154186,-0.0506595410407,0.220381900668,0.298663526773,0.351758599281,-0.304021149874,-0.588698029518,-0.173090532422,-0.58510518074,-0.190979152918,0.0650719106197,-0.0481095612049,0.644892275333,-0.159946426749,-0.295717477798,-0.311415106058,0.302476614714,0.15949434042,0.152000889182,-0.00622655870393,0.167293846607,0.268378347158,-0.299986213446,-0.0727697834373,-0.102796584368,0.0364936627448,-0.181771889329,0.516263067722,0.362106710672,0.099146194756,-0.522698402405,0.0800938755274,-0.144822910428,0.220386177301,-0.296723395586,0.169143885374,0.25854948163,-0.00339011382312,-0.00734521914274,0.390184015036,0.0259364005178,-0.437675774097,0.217972040176,-0.550987184048,0.152276664972,0.123638793826,0.0624578893185,-0.155611529946,0.302954047918,-0.157365560532,0.101186923683,0.178563937545,-0.224988281727,-0.211826682091,-0.029749462381,0.029435062781,0.181245163083,-0.437664866447,0.65957480669,0.103485807776,0.422308802605,-0.518193185329,0.130895361304,-0.0643367394805,0.356516063213,0.0298022031784,-0.106844753027,0.00854200590402,0.0985288023949,-0.321505576372,-0.385799199343,-0.259377509356,-0.141145199537,0.557706236839,0.227153390646,-0.334313243628,-0.222224697471,0.176877170801,0.0891255140305,0.185270279646,0.0983446761966,-0.0565067194402,-0.0790594518185,-0.325006186962,0.104770340025,0.00747038424015,0.469466179609,-0.235514849424,0.577657461166,-0.207082405686,0.290712952614,0.155880376697,-0.371607333422
"ntL$",-0.0338324159384,0.0417423322797,0.0932922586799,-0.0104518048465,-0.165278971195,0.0077839451842,0.510905444622,0.274617552757,0.249726697803,0.186071231961,0.141765728593,0.185349971056,0.0416463278234,0.177028506994,-0.241184532642,-0.375468373299,0.0586668662727,-0.0941305011511,0.566761493683,0.0931681320071,0.151049047709,-0.12360316515,0.153098210692,-0.00188518152572,-0.199459776282,-0.133925557137,-0.0281302724034,0.12788169086,-0.153701975942,0.0618311055005,-0.197513401508,-0.00874528381974,-0.0771939828992,-0.136735484004,0.0896132662892,-0.0720709338784,0.472432106733,0.520283401012,0.407929986715,-0.00483659235761,0.361127495766,-0.374273180962,-0.239471435547,0.349892884493,0.30914491415,0.32564842701,0.066586330533,0.242809072137,-0.434318810701,-0.353676170111,-0.610390841961,-0.0464670993388,0.216955408454,0.180235445499,0.0505126491189,0.133174359798,-0.0760839879513,-0.628827810287,-0.339700222015,0.0228749923408,0.170478582382,0.212517023087,-0.167819008231,-0.316363096237,0.254783272743,-0.120603442192,0.0294108968228,-0.35234361887,0.114516571164,0.292316675186,-0.168818160892,-0.00128975615371,0.255771517754,0.541497290134,-0.503903567791,-0.27668467164,0.159238040447,0.370760679245,0.399762839079,-0.361118257046,0.106695644557,0.24193687737,0.00426363712177,0.347263008356,0.423959314823,-0.193070814013,-0.239041388035,0.212805822492,0.13915130496,0.0784971863031,0.492667794228,0.541733264923,0.32187718153,0.12061163038,-0.0672288760543,0.0137288216501,0.400720566511,0.296477854252,-0.145268216729,-0.032883387059
"Chw$",-0.242565780878,-0.00775487488136,-0.205414116383,0.346095263958,-0.566445291042,-0.00681404303759,-0.388359099627,-0.0561271384358,0.38119572401,0.130710616708,-0.57678425312,0.178061842918,-0.00683704158291,0.403925091028,0.0764223411679,-0.098554559052,0.324956357479,0.0905963256955,-0.297597140074,-0.475580334663,0.132328152657,0.166819229722,0.262051254511,0.344574540854,0.18583804369,0.0117108691484,-0.450544625521,-0.066094070673,0.114854097366,0.0705329328775,0.0223351623863,-0.145215779543,0.418861746788,0.475083887577,-0.165192976594,-0.180427730083,0.517477810383,0.405260145664,0.511978983879,0.337395399809,-0.497230887413,-0.242554977536,-0.21083137393,-0.282429873943,0.290390282869,0.257360041142,0.0614793002605,0.197150692344,-0.394552946091,-0.0114315347746,0.294786393642,-0.215483039618,0.216064080596,0.240809038281,-0.0213476642966,-0.414541214705,-0.457688361406,-0.194636389613,-0.142334699631,0.0459107086062,0.116108052433,-0.478235155344,-0.428890496492,0.325106829405,0.254249989986,-0.353638142347,-0.338842153549,-0.0916709378362,-0.231230974197,0.347845852375,0.298553258181,-0.455181539059,0.335918277502,0.306099712849,0.494220644236,-0.073902130127,-0.193318426609,-0.324151992798,0.458981484175,0.130938082933,0.275824248791,0.19967161119,-0.160477429628,-0.230297192931,0.0438753776252,0.244913518429,0.11796567589,-0.0510449297726,0.0149089256302,-0.17682223022,0.214201137424,0.182720795274,-0.23724129796,-0.170697063208,0.0654680132866,0.614029467106,-0.210723161697,-0.324730664492,0.0422331728041,0.0856234356761
"Z7~",-0.239306658506,0.367610454559,0.044627122581,0.208588212729,-0.307265341282,-0.0343055054545,0.383726000786,-0.0402443036437,-0.173875525594,-0.387660384178,-0.0883370041847,0.384529292583,0.257946193218,-0.0702846422791,0.0261585339904,-0.0296456906945,-0.17303943634,0.20553638041,0.172950387001,-0.172692447901,-0.210094556212,-0.0872671157122,0.052986625582,-0.131420657039,-0.123290672898,-0.0270172171295,-0.0549354627728,-0.464029461145,-0.303958684206,0.338802367449,-0.154588624835,-0.243312343955,-0.0296100210398,-0.00403142347932,-0.169265300035,-0.158252552152,0.216062486172,-0.171005830169,0.21980074048,-0.277944177389,0.386944502592,-0.0413373634219,-0.149133339524,-0.267696976662,-0.0600079894066,-0.189458400011,-0.0390826389194,0.432633191347,-0.626477777958,0.336361408234,-0.0386823564768,-0.162917420268,0.0742754489183,-0.00923602376133,0.315671950579,0.0554957203567,-0.0611856877804,-0.31842431426,0.407733738422,0.082200884819,-0.21629665792,-0.13585062325,0.0685696080327,-0.0567082539201,0.0339092575014,0.0443581603467,-0.0885041058064,-0.0568401999772,0.16761572659,0.0680997520685,-0.178056210279,-0.105579309165,0.271331042051,0.319106370211,0.055307444185,-0.166553944349,0.254759043455,0.15022739768,0.276581734419,0.165405601263,0.0821493864059,0.249947860837,-0.0227291081101,0.298917889595,0.195156574249,0.066966637969,0.0563739798963,-0.047754123807,0.356148689985,0.260500013828,-0.0591543018818,-0.201867222786,0.0520607233047,-0.0169887654483,-0.168194189668,-0.139559864998,-0.0456958785653,-0.0625990256667,-0.32933807373,-0.240828827024
"!gx$",0.744181394577,0.195242062211,-0.0483402535319,-0.258946150541,-0.278487443924,0.248920813203,0.100111320615,-0.144163548946,-0.0192055981606,-0.189565628767,-0.447717308998,0.372643500566,-0.00151426356751,-0.0728954300284,-0.0217925962061,-0.0441916063428,0.131017252803,-0.184930220246,0.174781277776,-0.0892185866833,-0.376985579729,-0.167330756783,0.0901093482971,0.491030871868,-0.131891027093,0.0696114450693,0.17782714963,-0.544640481472,0.477455854416,-0.0508916266263,0.113551281393,-0.119943112135,-0.449262470007,0.191438928246,-0.0248227082193,-0.246096178889,0.322997748852,-0.256547451019,-0.348306715488,0.589937925339,0.169925615191,-0.126332625747,-0.271283715963,-0.132851779461,0.212187945843,-0.183381438255,-0.522921144962,0.545745670795,0.217896223068,0.248007342219,0.25979167223,0.0466081164777,0.697946369648,0.0825078636408,-0.122866868973,0.527593553066,-0.152251362801,-0.196005582809,0.650976121426,0.462360024452,-0.32938939333,0.55013769865,0.318749219179,0.00139784766361,-0.510185778141,-0.101356394589,0.02585247159,-0.146829143167,0.279114872217,-0.324773639441,0.22532863915,-0.00424760626629,-0.332904487848,-0.101886048913,0.195282667875,0.153122738004,0.250592887402,0.471847444773,-0.532420158386,-0.296648144722,-0.105477020144,0.159416794777,0.450296014547,-0.0357482135296,0.173850476742,-0.322679370642,0.325732886791,0.0233667101711,0.58594250679,-0.122159138322,-0.414383500814,-0.0527715310454,0.50341719389,-0.0214259028435,0.328501135111,-0.352764338255,0.155974552035,0.157412901521,-0.531677722931,-0.24274931848
"b",0.146452397108,0.12296230346,0.0348743498325,-0.0745854005218,-0.0889644399285,0.11077658087,0.303683996201,-0.148398771882,-0.105834819376,0.119967333972,0.17013682425,0.197580873966,-0.0880368947983,-0.0134205101058,0.00935171265155,0.021144811064,-0.00450463686138,0.087617598474,-0.0287260934711,0.0138214202598,0.0241866372526,0.0175615977496,0.0472464188933,0.0314345136285,0.156959623098,0.00676162354648,-0.0872968956828,0.37065795064,0.110332585871,-0.0401583649218,0.218944892287,-0.0985818952322,-0.086795322597,-0.160236030817,-0.0274084266275,-0.0058933426626,-0.00738617824391,0.0441235527396,-0.119259506464,0.0743338093162,0.00532522518188,0.0188143290579,-0.0827010944486,0.115007922053,0.00159771554172,-0.0933025553823,0.392647922039,0.0101540694013,0.00543221551925,-0.0568144060671,0.302513211966,-0.0362027063966,-0.220492765307,-0.00929716881365,-0.0255948919803,-0.243911638856,0.00626719743013,0.17222225666,0.00282744178548,-0.0453551113605,0.0299673788249,0.0909031927586,0.0418349392712,0.0163317602128,-0.0422836318612,0.0618158504367,-0.0389580503106,-0.0068548573181,0.0925872400403,0.0413222499192,-0.0625950396061,0.0143342185766,-0.0548102371395,-0.1559202075,0.169627770782,0.00695488182828,-0.0209331996739,0.082990065217,-0.208229601383,-0.100521288812,0.144796729088,-0.0885203108191,0.0167085547,-0.262268334627,0.0327191203833,0.00413070758805,-0.073631644249,-0.275756657124,-0.0183930173516,0.0876933187246,0.0113836340606,0.00201484188437,0.0222808923572,-0.00246510352008,-0.0932729169726,-0.00772639643401,-0.117534510791,-0.0484473258257,-0.0718109309673,0.0121197244152
"!",-0.266394674778,-0.249532982707,-0.327853739262,-0.103107020259,-0.488701164722,0.0985696017742,-0.288159459829,-0.0483543276787,0.220539793372,0.432949900627,0.058075517416,-0.239077344537,0.0650895908475,-0.0728390216827,0.366074055433,0.316320002079,-0.0844597220421,-0.00992124434561,-0.0449030064046,-0.0694191455841,0.226542249322,-0.505694150925,0.21587190032,-0.201856866479,0.296226203442,0.198966771364,-0.133625552058,-0.275791376829,-0.188217759132,0.335091084242,-0.00211325939745,0.136446297169,-0.0634135007858,-0.27590110898,-0.0170848090202,0.059538371861,0.272941380739,-0.129287227988,-0.406122922897,-0.157027304173,0.0252994354814,0.23879571259,-0.593518197536,-0.467995584011,-0.205059573054,0.0128403333947,-0.0680500566959,-0.26775971055,0.201358795166,-0.023395806551,-0.219891652465,-0.191081449389,0.249638020992,0.0185195691884,0.132993727922,0.14364567399,-0.133196100593,0.307507425547,-0.263187289238,-0.0816690474749,-0.148092001677,0.189345523715,-0.213135674596,0.0680780038238,0.139098599553,0.0395182408392,-0.0844480767846,0.428614377975,0.295873045921,0.157678350806,-0.167701169848,-0.0339651331306,-0.351492524147,0.118581928313,0.123539097607,0.134707808495,0.0140505377203,-0.0159733537585,-0.211907655001,-0.244063928723,0.270542025566,-0.355988562107,-0.328430861235,0.00261745881289,0.049934387207,-0.0275125224143,0.0585656799376,0.392996758223,-0.126043319702,0.00822656881064,0.434995383024,-0.0716276839375,0.178358390927,-0.0732268169522,0.152172669768,0.0394186861813,0.186365574598,-0.18749076128,0.0575079880655,0.223468646407
"thv$",-0.00301031302661,0.565627157688,0.254658997059,0.192009717226,0.134695097804,-0.393518507481,0.265864521265,0.157712042332,-0.701146543026,0.0979597270489,0.295545488596,-0.05090174824,0.230949833989,0.635035395622,-0.00658814702183,0.228797793388,0.207146674395,0.193401232362,0.176767885685,0.276297688484,0.242985084653,0.216200277209,0.130476936698,0.636551260948,0.275656908751,-0.217547789216,0.0914630070329,-0.145982399583,0.15900722146,-0.180889055133,-0.0285715106875,0.280036896467,0.135409280658,-0.765213310719,0.871021211147,0.14722007513,0.343952268362,0.366230934858,0.143611446023,-0.172989279032,-0.050128929317,-0.276453912258,-0.337504804134,0.396942555904,-0.64684599638,0.0554949715734,-0.578507721424,0.0137038799003,-0.277611553669,0.163049906492,0.00281271361746,0.721848726273,-0.284359812737,-0.706876039505,0.216738685966,-0.0974445343018,0.724380612373,-0.277687966824,0.303837358952,0.253337115049,0.218049347401,-0.268568307161,-0.318017452955,0.411801725626,-0.241189956665,-0.264322072268,0.199510768056,-0.247875019908,0.183092683554,-0.0997040942311,0.0205596089363,-0.355872362852,-0.0929679870605,0.0509551167488,-0.237247377634,-0.0856198817492,-0.442527383566,-0.776678681374,-0.720141112804,-0.131080269814,0.0692272484303,-0.189583703876,0.220557883382,0.0877785012126,-0.00628827698529,0.167003110051,0.475079059601,-0.565856814384,0.342261373997,-0.259372770786,0.0801854729652,-0.462081760168,0.27380669117,-0.336083829403,0.521983385086,0.153184399009,0.0146385580301,-0.0464258976281,0.0111322887242,0.190158814192
"kf~",-0.0674038529396,-0.0386463068426,-0.201407670975,-0.00378180947155,0.204482525587,-0.294548541307,-0.00443723518401,-0.0222082193941,-0.0495823211968,0.159839168191,-0.0136593980715,0.156728997827,-0.174536824226,0.3939627707,-0.294970482588,-0.00813630130142,-0.11432813108,-0.353048145771,0.096477933228,-0.132253021002,-0.0314073599875,0.4708378613,0.107600286603,-0.105351500213,0.0148244826123,0.102095849812,-0.315555751324,0.282510280609,0.204557329416,-0.309425383806,-0.217394009233,-0.00666593946517,-0.119512155652,-0.413326233625,0.258820682764,-0.0755450725555,0.0458620116115,0.415644258261,0.0911380648613,-0.00381365790963,-0.326818406582,-0.244529858232,-0.595900416374,0.12755407393,-0.131675064564,0.486024111509,0.323617905378,0.083848759532,-0.393145680428,-0.160154566169,-0.0661064833403,-0.298993915319,0.412081569433,-0.293988734484,0.136183843017,0.353575766087,-0.103421315551,-0.326619058847,-0.0706540346146,-0.278453975916,0.339939624071,0.0497522726655,-0.00993274897337,-0.0568679310381,-0.469507962465,0.103964954615,-0.0765887871385,-0.0141465365887,-0.124088086188,0.0165578518063,-0.0524134151638,-0.443559229374,-0.263496726751,-0.042866744101,-0.281208366156,-0.20063816011,-0.143866419792,-0.641044795513,0.209837198257,-0.0293441135436,-0.151869624853,0.214764654636,-0.0297124907374,0.162513956428,0.311950027943,0.0316654033959,0.0198858380318,-0.00460855429992,0.102362066507,-0.487574070692,0.38092687726,-0.0957263857126,0.342830836773,-0.54773658514,0.268411278725,-0.103712521493,-0.160360023379,0.135597407818,-0.214909866452,-0.00890884641558
"rt~",0.306485146284,0.0243514645845,-0.498879820108,-0.104562327266,-0.290579915047,-0.391896724701,-0.142600923777,-0.0413699038327,-0.0808324441314,-0.195366069674,-0.228127464652,0.433192610741,-0.517768263817,-0.185384303331,-0.0905627980828,-0.0600955151021,0.168980136514,-0.427952975035,-0.19893284142,-0.107993282378,-0.115426689386,-0.360454201698,0.111840866506,0.0543059967458,0.134095981717,0.103092774749,0.103746175766,0.3050096035,-0.23251503706,-0.435616463423,-0.115855053067,-0.543822109699,0.0640823841095,0.0385557748377,0.153039574623,-0.263766556978,-0.00265722931363,0.170553639531,0.310527980328,0.11423844099,-0.125677719712,0.170706361532,0.0976814329624,-0.0333680063486,0.148783609271,0.203305676579,0.352005213499,0.298343896866,-0.739995241165,-0.141700193286,-0.0798489227891,-0.0437545143068,0.271731764078,0.274327844381,0.0135883921757,-0.0469244159758,-0.578703641891,-0.19469358027,0.519042909145,-0.692729473114,0.283126413822,0.216487586498,-0.372008413076,-0.292129576206,-0.0778384283185,-0.097591124475,0.105169780552,0.54191249609,-0.354877561331,0.280218631029,-0.207763791084,-0.148550868034,0.327017903328,0.341556459665,0.341847091913,-0.0389670841396,-0.382885187864,-0.227553278208,0.194887116551,-0.415629684925,0.0419033952057,0.254555404186,-0.159825742245,0.208270445466,0.0550120510161,-0.331485211849,0.214419007301,0.0807862505317,-0.272611528635,-0.637711405754,0.0908267274499,-0.0909113883972,0.397443085909,-0.132848516107,0.546348750591,0.298878550529,0.223651707172,0.493242293596,0.276705086231,-0.180932790041
"ly7$",-0.208938375115,0.130599036813,-0.0225431602448,-0.102121420205,0.147412955761,0.0608679167926,0.103835992515,-0.070030041039,-0.298115283251,-0.319707483053,0.0986833497882,0.191772922873,-0.0214891079813,-0.745488226414,0.0932074636221,-0.0208307895809,-0.163652449846,0.0333108380437,-0.0507087148726,0.283371090889,-0.128752440214,-0.38114836812,-0.568700909615,0.0446278080344,-0.0272711347789,-0.164791151881,0.179637163877,-0.107973657548,0.232516393065,-0.416458278894,-0.145343586802,-0.478744208813,-0.00679699610919,0.306168466806,-0.368822872639,-0.0239537227899,0.178617238998,-0.465102136135,-0.00536051765084,0.0193174481392,0.0981207862496,-0.167673632503,0.226824343204,-0.167133077979,0.268168956041,0.115969665349,0.335189074278,-0.10624461621,0.202286958694,0.359830200672,0.0731458812952,-0.0824569016695,-0.138106435537,-0.120489835739,-0.252521127462,-0.301974236965,-0.306947350502,0.365643948317,0.0603849589825,-0.0334078893065,0.0539235658944,-0.10873490572,-0.07193338871,-0.165319830179,-0.15187703073,0.0495638437569,0.068976610899,0.277969956398,-0.0478194989264,0.2407540977,0.324407428503,0.0666996985674,-0.242283344269,0.0396414771676,0.537640869617,0.431811124086,-0.223762884736,0.116140976548,-0.045892290771,0.404089480639,0.122984372079,-0.138212993741,-0.403839170933,-0.210941120982,-0.204061239958,0.300917327404,-0.289436817169,0.287452816963,-0.116519868374,-0.143810555339,0.230840355158,-0.28765437007,0.0116727342829,-0.0397262871265,-0.171324387193,0.125001236796,-0.0577196553349,-0.0165125988424,-0.00873077847064,-0.241910800338
"trh$",-0.567116260529,-0.000171133695403,-0.234512522817,0.0690595731139,-0.560289859772,-0.21224437654,-0.33228841424,0.457291573286,0.654228031635,0.0191192571074,-0.0647509992123,-0.140948072076,-0.0911413729191,-0.15676471591,0.314050853252,-0.352247625589,0.0609913393855,0.0447232164443,-0.0332819223404,-0.499027699232,0.254936486483,-0.00178294081707,-0.0704201459885,0.248513296247,-0.021592784673,0.0062138158828,0.295127898455,-0.200424879789,0.252282232046,0.00104471098166,-0.200815171003,0.338604897261,0.217578053474,0.499458521605,-0.132541880012,-0.571869671345,0.342198312283,-0.184679627419,0.289775133133,-0.273018151522,0.0880573242903,-0.348135471344,-0.236993223429,0.0240688100457,-0.0689643248916,0.108688250184,-0.231447204947,0.00699040805921,-0.461453855038,0.130164638162,-0.237593770027,-0.305203527212,0.00391461979598,0.277784347534,-0.150794878602,0.131513059139,-0.213323503733,-0.429938435555,0.195339694619,0.189578145742,-0.166955649853,0.332899004221,-0.0729764327407,-0.262005805969,-0.0735639408231,-0.317791998386,0.204530164599,-0.143403664231,0.276416301727,0.050611179322,0.0731505453587,0.160704940557,0.496595829725,0.53857678175,0.0100716101006,-0.0507048852742,-0.0495300404727,0.0968898609281,0.499846249819,-0.235821992159,-0.0826056152582,-0.0261289551854,-0.0699839219451,0.411774843931,-0.520022153854,-0.533023476601,-0.0298387538642,0.0397457405925,0.152556985617,-0.193442881107,0.00890694838017,0.0119222979993,0.293497085571,-0.240271911025,0.102436214685,0.205269128084,0.408069610596,0.191545039415,-0.344586372375,-0.377346694469
"Z",0.18076351285,-0.0493148602545,0.261829793453,-0.313944488764,-0.0438553020358,-0.11922814697,-0.0960923805833,-0.206292122602,0.0869819372892,0.0756028071046,-0.406264990568,0.109785959125,0.0686411485076,-0.104439653456,-0.133250340819,0.12742228806,-0.316599875689,0.198531970382,-0.627819299698,0.0734663978219,0.284181386232,0.420078963041,-0.261831820011,-0.0958620905876,-0.0425672270358,-0.0935087427497,-0.387572824955,0.358600705862,0.340503334999,0.358813613653,-0.122204184532,-0.105044335127,0.112864054739,-0.00657836766914,-0.148940041661,0.240364387631,0.203334420919,0.216153517365,-0.267723202705,0.136901274323,-0.0654580518603,-0.0715412572026,-0.000908470130526,-0.0947901904583,0.0245730970055,-0.116880297661,0.0206093806773,0.14171846211,0.0154549079016,0.498644441366,-0.176054760814,0.0891792923212,0.0530275441706,-0.114425100386,0.272589951754,0.0463740937412,-0.33822658658,-0.0628297403455,-0.140346586704,-0.244910389185,-0.0115467105061,0.150080427527,-0.0997051075101,0.363621234894,-0.0302079636604,0.0598218142986,-0.190069273114,-0.0937093943357,0.0151038812473,-0.394142687321,-0.160181820393,0.037564072758,0.0401671342552,0.0621662326157,-0.127134129405,-0.212875336409,-0.406368225813,-0.125842675567,-0.348333477974,-0.0364425741136,-0.0805410966277,0.0637483000755,0.411675840616,-0.404531747103,-0.279010504484,-0.0645025968552,-0.181278347969,0.0984166041017,-0.132902100682,-0.160328194499,-0.285276919603,-0.251800894737,0.0588787421584,-0.0603228732944,-0.00489206286147,-0.318172216415,0.0860081017017,0.0355103425682,-0.069975912571,0.287294507027
"sc~",0.12025809288,-0.413825184107,-0.142946362495,0.325657278299,0.380530834198,-0.302590668201,-0.217464163899,-0.0294348709285,-0.038795158267,0.0713840574026,0.344036757946,0.0957703888416,-0.563940942287,0.195212051272,0.351047575474,-0.217601537704,0.540993452072,-0.420061200857,-0.110740453005,-0.234372273088,0.0467261448503,-0.240392714739,-0.274935722351,0.489537239075,0.492400050163,-0.41392070055,-0.178439542651,0.0462489314377,0.409876942635,-0.289534717798,0.361300170422,-0.402173042297,-0.115277431905,-0.209714949131,-0.515125930309,-0.0481830053031,-0.0647322386503,-0.0785563066602,-0.375568240881,0.308547824621,-0.085915543139,-0.197582006454,0.190642148256,-0.110268004239,-0.159292161465,-0.258777618408,-0.306792110205,-0.241013735533,0.0586800128222,-0.0403700172901,-0.0410000756383,-0.0321976989508,0.0587583035231,0.254935532808,-0.29000094533,0.128473415971,0.482335656881,-0.223029971123,0.429975390434,0.261008501053,-0.18890362978,-0.643042564392,0.0823566988111,-0.610333621502,-0.211026906967,0.617415308952,0.571285545826,0.160684153438,-0.019297292456,-0.201551526785,0.416044980288,0.168451264501,-0.159777089953,-0.699645757675,-0.600318968296,0.292006552219,-0.0492019057274,-0.29188388586,-0.409792363644,0.0516968108714,0.258892327547,0.377662062645,0.0314155071974,-0.656395018101,0.0735899060965,0.523317873478,-0.172208204865,0.0964052304626,-0.0596944242716,-0.194707944989,0.00855336617678,-0.383192449808,-0.493806302547,-0.328285008669,0.0128384707496,0.139278143644,-0.494630783796,-0.140884831548,-0.157560050488,0.564270377159
"v7~",0.582269191742,-0.178669899702,-0.232560500503,-0.0675935819745,-0.24991081655,0.409198969603,-0.0329266414046,0.0312749817967,0.0330275706947,0.28276103735,0.389853805304,-0.13912512362,0.225605949759,-0.373643010855,0.386839568615,0.206042513251,-0.266471415758,0.102824248374,0.0488954149187,0.512839019299,-0.180185139179,-0.254950791597,-0.318793326616,0.255869567394,0.31700116396,0.193282261491,0.151146963239,-0.297692358494,-0.476747959852,0.0772423371673,0.0886318534613,0.0545526258647,-0.363279163837,-0.26190328598,0.141397550702,0.531834721565,0.272314399481,0.036809746176,-0.493632555008,0.0515852868557,0.373630791903,-0.299677789211,0.106687836349,-0.00905279722065,0.0196764804423,-0.0931049287319,-0.16517354548,0.184536010027,-0.112198531628,0.387444019318,-0.277938753366,-0.165267959237,-0.191211149096,0.293887197971,0.158983036876,0.0896626040339,-0.190606683493,-0.161861211061,0.0687994360924,0.065618917346,-0.15627656877,0.587629556656,-0.139496326447,0.195358633995,0.195023939013,-0.375490039587,-0.022886607796,-0.182782918215,0.548783421516,-0.225273936987,0.224464386702,-0.0800807923079,-0.278172582388,0.0783223509789,0.285861313343,0.023424828425,-0.330422103405,0.181415244937,0.167576909065,-0.260614514351,0.396109759808,0.417969554663,0.233894556761,-0.230124339461,0.00787238404155,-0.120375528932,0.267901659012,0.224525526166,0.202628150582,0.444278180599,-0.404657781124,-0.072464749217,-0.278798341751,0.323996573687,0.378621548414,0.0330285429955,0.409681737423,-0.00523128919303,0.234669476748,0.223548322916
"yy~",-0.18214930594,-0.121086679399,-0.278032779694,-0.642127752304,0.339831143618,-0.228089079261,-0.192467585206,-0.71330678463,-0.152030304074,-0.224105924368,-0.142636626959,0.0951596200466,0.370189368725,0.0960248559713,0.0711682885885,0.303535550833,0.491164833307,0.000159811592312,0.373581647873,0.476075142622,-0.365581601858,0.0914387479424,-0.346188813448,0.234087392688,-0.162361890078,0.0641262978315,0.00635256245732,0.302476078272,-0.357351869345,-0.0464063771069,0.237319871783,-0.0183012187481,0.0640197619796,-0.0793695747852,0.617607831955,0.067961089313,0.339661151171,-0.0868764519691,-0.353649049997,-0.479363113642,-0.0543878227472,-0.838221609592,-0.319266498089,-0.195112496614,0.403945744038,0.00356765673496,0.216549411416,0.0824424549937,-0.239766404033,-0.185223758221,0.387436240911,-0.0799171626568,-0.0629897490144,-0.377957969904,0.045238815248,-0.104693330824,0.0172415804118,-0.792290091515,0.646268129349,0.399015694857,0.608013272285,0.0344234295189,-0.379007995129,0.157918021083,0.0285833086818,-0.317618429661,0.0898956507444,-0.081713758409,0.187290087342,0.129206582904,-0.169730260968,0.297481566668,-0.129859983921,0.32876431942,0.289243519306,-0.217031791806,-0.384613662958,0.0934637635946,0.405242264271,-0.347669363022,0.424408823252,0.237455353141,0.23834989965,0.355416029692,-0.0155687462538,-0.226004004478,0.126400396228,-0.701991975307,-0.00400855066255,0.0622660592198,0.335098296404,0.0996580868959,-0.177725300193,-0.0398590713739,-0.223378166556,-0.147638395429,-0.066263884306,-0.522089362144,-0.167293667793,0.319986730814
"tyh$",0.0503838844597,-0.0825372263789,0.0405819192529,-0.206836268306,-0.112529404461,-0.194025531411,0.110181815922,-0.0301659423858,-0.0434048064053,-0.213255107403,0.0970945432782,0.410353124142,-0.0105313966051,-0.192437335849,0.283536791801,-0.29004830122,-0.0185630992055,0.183999046683,0.0464260205626,-0.170963585377,-0.0220398530364,0.0183806437999,0.0517631806433,0.0670791119337,-0.0813898965716,-0.0270649753511,0.107774317265,0.0910846292973,0.212244749069,0.0505720824003,0.394040286541,-0.345968991518,-0.26087975502,0.139016851783,-0.0040935925208,-0.245101332664,-0.401904374361,-0.261926233768,-0.441335916519,-0.228549793363,-0.0467046052217,0.145205259323,0.115373469889,-0.0707881301641,0.00197810633108,0.0504498034716,-0.15539355576,0.215788111091,0.213644266129,0.356590390205,0.220586836338,0.191317200661,-0.228578567505,0.140175491571,0.081435970962,-0.149237811565,0.0171745531261,0.0185184311122,0.337388813496,0.212540850043,-0.345616489649,0.129384353757,-0.0140629913658,0.206498175859,0.0745511576533,0.0947685316205,-0.011019882746,0.252656400204,0.104985050857,-0.40424951911,-0.102102473378,0.360054939985,-0.236498355865,-0.188266828656,0.18125988543,0.248723164201,-0.309328198433,0.067727163434,-0.290546178818,-0.3159301579,-0.0245852172375,-0.0574097298086,0.138194769621,0.0102946683764,-0.501167714596,-0.114002384245,0.221386790276,0.174109593034,-0.0836088359356,0.148686528206,0.0258709881455,0.151856631041,-0.450324326754,0.135733172297,-0.256861448288,-0.0908674895763,-0.0841440856457,-0.0601963624358,-0.30973520875,-0.198794320226
"gb~",0.131911143661,-0.266302615404,0.0881130099297,-0.196736961603,0.22539177537,-0.0983175262809,0.0622823312879,-0.275119960308,-0.326519817114,-0.00132242543623,-0.225690454245,-0.113614194095,0.00645021395758,0.00958286318928,0.236307889223,0.0966577008367,-0.354668498039,0.273833364248,0.166662737727,0.395673573017,0.136545553803,-0.387207269669,-0.112076677382,0.616005301476,0.197136893868,0.268570303917,-0.256992250681,0.411298036575,0.156161397696,-0.445686101913,-0.343445003033,-0.253251969814,0.249489918351,0.0318094342947,0.218284621835,-0.152594298124,0.129646867514,0.36690941453,-0.0359678156674,-0.315295100212,0.0990030914545,-0.130124077201,-0.0461561605334,0.256839841604,0.334937721491,-0.222230121493,0.332566797733,0.103759422898,-0.0993236526847,0.20241124928,0.0115153342485,-0.119431078434,0.00112031784374,-0.0825980752707,0.285895645618,-0.268624722958,-0.323731601238,-0.146705284715,-0.272248417139,-0.479882001877,0.143119722605,-0.378920137882,-0.285416662693,-0.0920940041542,0.147434294224,0.223587885499,-0.249357745051,-0.125692263246,-0.181166231632,-0.110412046313,0.234918043017,0.296282410622,-0.0230541992933,-0.281047731638,0.492591768503,-0.199775189161,0.130927011371,0.169787928462,-0.302262753248,0.495529234409,-0.0244523175061,-0.0674621462822,-0.429019153118,-0.179928034544,0.0735229328275,0.31482693553,0.258494973183,-0.549137473106,-0.17489092052,-0.138850018382,-0.214733555913,0.0899389758706,-0.341313540936,-0.0850094631314,-0.294638603926,0.40684196353,-0.377548485994,-0.289227634668,0.669916152954,0.459565758705
"!xw$",0.385272175074,-0.0359456837177,0.0992670580745,0.0824686959386,-0.170996144414,-0.0585954338312,0.198766887188,-0.0277968868613,-0.20620419085,-0.162944450974,-0.130686014891,0.314817517996,0.043326061219,0.248440563679,-0.14421993494,0.255018591881,0.0889958590269,0.282585740089,0.234939426184,-0.302221149206,0.190468996763,0.269910871983,0.27382427454,-0.0438776612282,0.0409373156726,-0.196257144213,-0.14052733779,-0.348745286465,0.0637898221612,-0.124897137284,-0.346385329962,0.165298193693,-0.310237020254,-0.132143259048,0.182425886393,-0.251989930868,0.0747541114688,-0.204490020871,0.257004231215,0.265950292349,0.17040027678,-0.0383111536503,-0.176845505834,0.110658332705,-0.25188857317,0.112049907446,0.0381176806986,0.310444772243,0.0923282653093,-0.187050700188,0.30645018816,-0.196947038174,-0.254912793636,0.0403154268861,0.011452767998,-0.139471441507,0.12788516283,-0.0575447529554,0.184405609965,0.269068479538,0.204692080617,-0.174850299954,0.156181663275,0.205071642995,0.186841517687,-0.012863965705,-0.240405231714,0.190253943205,-0.116113297641,-0.278095811605,-0.00144272774924,0.0561372563243,-0.207030177116,0.282055437565,-0.295381963253,0.142633289099,0.0589780025184,0.120007380843,-0.291942447424,-0.337484061718,0.0283644516021,0.244011327624,0.28553840518,0.30656555295,0.329803884029,-0.324147999287,0.243062272668,-0.188693270087,0.074882812798,-0.220735445619,-0.335173785686,-0.0304649360478,0.167022362351,0.0950749069452,0.133436828852,-0.223765641451,-0.243475615978,0.213721081614,-0.312330335379,-0.304366618395
"T5~",-0.179232850671,-0.299605458975,-0.538536369801,-0.224256694317,-0.168315127492,0.229634031653,0.110874921083,-0.666736662388,-0.118390217423,-0.278656840324,0.140133664012,0.0500340722501,-0.0355332642794,-0.270578861237,-0.154859855771,0.42373919487,0.211938112974,0.400943219662,0.0645803436637,0.193986669183,-0.269369274378,0.0310661476105,-0.622633814812,0.0536099784076,0.411200851202,-0.145172342658,-0.133258908987,0.150988310575,-0.45501601696,0.0146280229092,0.420288443565,-0.170811921358,0.0102463178337,-0.0650781095028,0.339659273624,0.0198277719319,0.0951574444771,-0.183879420161,-0.144789755344,0.129493266344,0.305146545172,-0.16420519352,-0.118503004313,-0.161932885647,0.022526146844,-0.27451980114,-0.341007351875,-0.0256383940578,0.389676094055,0.475461363792,0.449351280928,0.255733042955,0.295428812504,-0.181187182665,0.0889430865645,-0.5842487216,-0.115447975695,-0.375000178814,0.256734400988,0.414821445942,-0.0517499223351,-0.00155914633069,-0.439177304506,-0.281876266003,-0.375749707222,-0.0018636562163,0.025858880952,-0.0485624521971,0.0392105840147,0.280549526215,0.107592649758,0.348655879498,-0.00801943521947,0.158120155334,0.359347075224,0.172971904278,-0.147048905492,0.0613149292767,-0.566969811916,-0.000792906794231,0.27733322978,0.331365734339,0.204304546118,-0.278773069382,0.317962110043,-0.164542496204,0.295987457037,-0.210553720593,0.342732101679,0.19792586565,0.169018924236,-0.406805127859,-0.423980236053,-0.204201370478,0.204052641988,-0.545106649399,0.106251999736,-0.179788962007,-0.256508976221,-0.266463458538
"tly$",-0.185095876455,0.00673099420965,-0.223100468516,-0.113376133144,0.0657514482737,0.293477743864,-0.0709812492132,-0.232171997428,-0.0371991246939,0.158231064677,0.0296398773789,-0.192120805383,0.205136746168,0.41676184535,-0.140658229589,-0.0339341275394,0.0461404882371,0.23502330482,0.193698838353,-0.102265484631,-0.0562291890383,-0.111532427371,0.167893499136,-0.00373819377273,0.0727308467031,-0.241387084126,-0.354542225599,-0.00768866250291,0.269535571337,0.13809619844,-0.0765993446112,-0.00170092750341,0.768647491932,-0.302242279053,0.223848119378,0.2791018188,0.0418873019516,0.331730335951,-0.118495620787,-0.362187236547,0.18488971889,-0.185034245253,-0.380963385105,-0.128380611539,-0.0596307776868,0.0408390127122,0.365764588118,0.107591643929,-0.524121165276,0.0390129685402,-0.0736016556621,-0.0291422009468,-0.344918251038,-0.328805744648,0.3786650002,-0.162425130606,-0.101049400866,0.0395174846053,-0.152864173055,-0.125355064869,0.402982473373,-0.156534403563,0.0595459342003,-0.105529226363,-0.159543335438,0.0535862408578,-0.244932830334,0.0351522825658,0.400255769491,-0.0712811797857,-0.260146766901,-0.104121498764,0.0385401509702,-0.200903862715,0.0884202048182,0.0340272970498,-0.0109918881208,-0.0354310460389,0.133342146873,0.339646756649,0.0710778608918,0.463027149439,-0.348383069038,0.0832908451557,-0.0965818241239,0.00370381167158,0.514622926712,0.152449145913,-0.362923532724,0.060607675463,-0.11390274018,-0.0813985615969,-0.0498569346964,0.423049718142,-0.0878739133477,0.373086243868,-0.0022367243655,-0.149048656225,0.18815523386,-0.29564511776
"j",-0.236326262355,-0.318981438875,0.206445023417,-0.263542324305,0.301074147224,0.161261111498,0.182852581143,-0.208948642015,-0.0414624661207,-0.0328695774078,-0.168120741844,0.306955903769,-0.000541313900612,0.0365207083523,-0.235054865479,0.154342696071,-0.365628540516,0.00787756312639,-0.129047513008,0.108778968453,-0.259864330292,0.0686176270247,-0.133815467358,-0.350502789021,-0.10893907398,0.172850310802,-0.122462719679,0.363438427448,0.151205092669,-0.112477011979,-0.000629982154351,-0.0450127311051,-0.149951845407,-0.0489534661174,-0.236143261194,0.0557723380625,0.0190211888403,-0.0346618257463,0.227950811386,0.105672091246,0.109407119453,0.289393812418,0.0933431312442,0.176689341664,0.306614071131,0.0815974250436,0.0603497549891,0.230708003044,0.0904644206166,0.293938845396,0.127461880445,-0.199039444327,0.266132265329,-0.202367812395,0.211410358548,0.0500898621976,-0.112496741116,0.041035387665,-0.512721478939,-0.0814204514027,0.00753956753761,-0.0686390772462,-0.0123384362087,0.00315286777914,0.00714769447222,-0.54328763485,0.18044565618,-0.111346326768,0.254493743181,0.0387960374355,0.0258131287992,-0.0697534903884,-0.0194612648338,0.264728218317,0.128401771188,0.193724215031,-0.299919396639,-0.199111670256,0.144018694758,0.0347168073058,-0.00608419906348,0.129855260253,0.138175204396,-0.325202047825,-0.180204555392,0.130786135793,0.0862175524235,0.100242577493,0.0271799359471,-0.0881226807833,-0.0949317514896,-0.110661424696,-0.168707713485,0.105597883463,-0.082322485745,-0.232417196035,0.0684435591102,0.00610360177234,-0.0232531391084,-0.00619049416855
"mpy$",0.235107555985,-0.112468831241,-0.28457519412,-0.100989244878,-0.0264362152666,-0.0959065258503,-0.102850809693,0.0636848956347,0.118067339063,0.704160392284,-0.0173355825245,0.195659533143,-0.304936617613,0.299881875515,-0.698096096516,-0.710394084454,-0.0916781947017,0.587891638279,0.280386269093,-0.221163317561,0.0453424453735,0.108330577612,-0.162465840578,0.356306612492,-0.149728730321,0.0447716042399,-0.751232504845,-0.0338351763785,0.543956041336,0.546568930149,-0.110322758555,-0.291780650616,0.380753755569,-0.185093536973,0.0334137268364,-0.0126300500706,0.205773368478,-0.276333928108,-0.482650816441,-0.301232784986,0.563859760761,-0.522013127804,0.247502207756,0.0556672886014,0.264497756958,-0.00551989953965,0.472896039486,0.0819290280342,-0.418987810612,0.857437849045,0.254746317863,0.0223314873874,0.208629891276,0.0874933823943,-0.035887721926,-0.310532033443,-0.212584465742,0.496994942427,-0.51758569479,-0.338299304247,0.319514274597,0.104110904038,0.663896143436,0.452833116055,-0.0208217166364,-0.22093129158,-0.61267966032,0.0406278558075,-0.0996785461903,-0.257119596004,-0.553499162197,-0.565784156322,0.113908156753,-0.237608253956,-0.219002276659,0.396408855915,0.0312838368118,-0.0232503786683,0.448713392019,-0.177379652858,0.301983386278,0.44220277667,-0.390689432621,-0.00302104023285,0.125800415874,-0.0782658830285,0.273320913315,0.0792263895273,-0.929390251637,0.465740889311,-0.0606307797134,0.271760374308,-0.589537382126,-0.119634672999,0.228426530957,0.170473113656,0.282634347677,0.60087531805,0.285544425249,-0.0398068167269
"mbh$",-0.505800247192,-0.531450271606,-0.312972724438,0.347632080317,0.0822384133935,-0.306766211987,0.0197792034596,-0.191837981343,-0.0446945391595,0.245996162295,-0.148101061583,0.472939878702,0.545790314674,0.491014659405,-0.1877938658,-0.615912139416,-0.315248757601,0.153563454747,-0.0437031909823,-0.0724959969521,-0.0131959030405,0.478246748447,0.131626874208,-0.236182540655,0.0756927579641,-0.37511792779,-0.14175234735,0.178561553359,-0.0208782535046,0.0252100098878,-0.150467246771,-0.171262398362,0.0929925218225,-0.386383205652,0.0212854631245,0.0708551555872,0.740943610668,-0.131018549204,0.196300923824,0.291767567396,0.577887773514,-0.223508238792,0.218834683299,0.143029153347,-0.380139946938,0.139568522573,-0.113355949521,-0.102211497724,0.102204322815,-0.0937279760838,0.183991894126,0.0221316087991,0.0844308063388,-0.14714512229,0.0556471347809,0.131997302175,0.326443314552,-0.0215590577573,0.103768885136,0.117771677673,-0.413667500019,-0.354372680187,-0.191477000713,0.162186443806,0.324059098959,-0.153395280242,-0.0879066362977,0.225521340966,-0.318440884352,0.279171913862,0.00838372576982,0.0378230139613,0.377617359161,-0.418225377798,-0.0200845338404,0.0570024587214,-0.0489671714604,0.299932450056,0.545706152916,0.611092150211,0.195872783661,0.396982967854,-0.201314285398,0.139456897974,-0.35500022769,0.141083389521,-0.0479207634926,-0.00195748498663,-0.0439589060843,-0.243351504207,0.267243772745,-0.264140993357,0.384210258722,-0.218870341778,-0.0753609910607,0.0177006274462,-0.208362102509,0.0992670729756,0.40917095542,-0.146483108401
"e"",1.24451982975,0.6977211833,-0.591165244579,1.2860802412,-0.0486225262284,0.729383945465,-0.153422281146,0.404175072908,0.376745760441,-1.0212726593,0.652504742146,0.375282764435,-1.3264362812,0.945679783821,1.37672138214,0.657522141933,0.432432711124,-0.310442298651,0.89698690176,-0.69000351429,-0.25605019927,0.401872962713,-0.0565321780741,-0.423349142075,1.09347295761,0.0922017917037,0.506815075874,-0.755129277706,0.291819393635,-0.626127719879,-1.35058045387,-0.122146248817,0.626669943333,-0.811049997807,1.142608881,-0.587197363377,1.05414617062,-0.556971549988,-0.0830673873425,-0.721540629864,-0.240765497088,-1.21687412262,0.14220367372,-0.730631172657,-0.295741319656,0.0793462246656,-0.217998415232,0.725291550159,-0.542764127254,0.889747440815,-0.152347072959,-0.068448074162,-0.0508709326386,0.169285327196,1.02838027477,1.23198103905,-0.669700086117,-1.20343589783,1.05592596531,0.623817384243,0.710454344749,-0.462130576372,-0.00152734573931,-0.211012884974,-0.968845009804,-0.335750520229,-0.624465405941,-1.00748503208,0.0868244096637,0.967480421066,1.19435298443,-0.318977057934,-0.660879850388,-0.261029630899,0.494068026543,-0.753317773342,0.0194492731243,-0.802289903164,0.345578461885,0.411342024803,0.0330056473613,-0.681763708591,-0.677646875381,0.365582048893,-0.799304068089,-0.300636053085,0.536110281944,0.480639129877,0.321339160204,-1.35708284378,0.76517778635,-1.20058870316,0.842319369316,-0.291474252939,0.791634619236,0.880347430706,-0.208371415734,0.199679449201,-0.286683022976,-1.04260921478
"ux~",0.373499155045,0.197619691491,-0.0289809238166,-0.00915338471532,0.0354022756219,0.347017854452,0.0961460992694,-0.112920470536,0.175390422344,-0.178995251656,-0.306416720152,0.0480417609215,0.389497816563,-0.279172986746,-0.233836114407,0.496602535248,-0.562532007694,0.0177888050675,-0.392047703266,0.141411364079,-0.233833000064,0.223290503025,-0.591544032097,0.0629891976714,-0.412530481815,0.372967660427,0.297683149576,-0.0706040561199,-0.152176454663,0.257238894701,0.117801956832,-0.104568496346,-0.166562408209,-0.00686539616436,-0.366756111383,0.311881572008,0.0718054696918,0.0993961021304,-0.23292401433,0.0303726829588,0.343137562275,0.153456941247,0.418252378702,-0.0229226630181,-0.0898762494326,0.117825873196,0.204958826303,0.310258835554,0.0383533090353,0.100043587387,0.175359919667,0.0275453999639,-0.0238515995443,-0.428819209337,0.57430177927,0.231979325414,-0.0479719527066,0.404028505087,0.0773083567619,0.0886380672455,0.0495819859207,0.571594059467,0.275089323521,0.185061663389,-0.185036271811,-0.123446941376,0.111323587596,0.183597803116,0.13380099833,-0.462550759315,0.254612773657,0.0680724531412,-0.247964009643,0.24705350399,0.435331970453,-0.0930996015668,-0.051970988512,-0.0772253796458,-0.205836713314,-0.182675674558,0.281089663506,0.185673847795,0.259159803391,-0.172533348203,-0.226054385304,-0.158254802227,0.0237864907831,-0.203601375222,-0.0381292439997,0.157600715756,-0.457697689533,0.147568047047,0.117252074182,0.124567076564,-0.32377833128,-0.209568321705,0.406492352486,-0.0350458621979,0.130779594183,-0.473229885101
"mp~",-0.163777083158,-0.757576167583,-0.311854809523,-0.145778685808,0.0366624779999,-0.120522320271,0.0440428219736,-0.353617310524,-0.0829127654433,-0.248114734888,0.240673884749,0.1984295398,-0.187148526311,0.117876954377,-0.371543616056,0.0576888099313,0.548343420029,-0.45288336277,0.635422289371,0.305238187313,0.50823867321,0.0587854832411,0.154083564878,0.1703954041,-0.214576721191,0.270237773657,0.125442147255,0.583614766598,-0.0876435115933,0.211564779282,0.192479118705,0.35614746809,0.0804511234164,0.156322449446,0.593993365765,0.459007441998,0.190473049879,0.0033891198691,0.186781346798,0.479112267494,0.129197403789,-0.532845795155,-0.132379502058,0.0376797057688,0.386279731989,-0.089901432395,-0.341170698404,0.0144389346242,-0.0857249647379,-0.0775825530291,-0.765062391758,-0.273530602455,-0.0776904895902,0.0155110014603,-0.0612173452973,0.166389092803,-0.418674319983,0.11223615706,0.165651828051,0.235833510756,-0.123304322362,0.0385773852468,0.400424927473,-0.436055868864,0.206986919045,-0.0102478247136,0.0942345559597,-0.231616288424,-0.228087216616,0.116070456803,-0.353283435106,0.145768553019,-0.197026714683,0.0215278100222,0.0973397344351,0.222196578979,0.521510183811,-0.462034583092,0.00640578381717,-0.0646096691489,0.136224731803,-0.070210069418,-0.697126567364,0.513592064381,0.316053330898,0.216637820005,-0.829993546009,-0.0921290963888,-0.175439447165,0.261214971542,-0.232398793101,-0.148180291057,-0.251698553562,-0.0595248043537,0.00263545825146,-0.076095148921,0.00095489009982,-0.139457136393,-0.0480060651898,0.166357815266
"nw~",-0.170252382755,0.0524297207594,0.0575044639409,0.0129191176966,0.0490640103817,-0.175113603473,-0.0925470516086,-0.0124265123159,-0.0937111079693,0.096636235714,-0.343841284513,0.189767837524,-0.0776640102267,0.336485803127,-0.0421689674258,0.125262081623,0.832168281078,-0.00470916554332,0.147149562836,0.144345015287,0.437519907951,0.27938619256,0.244745478034,-0.0204345807433,-0.287346661091,0.269000917673,-0.240000844002,0.086551591754,-0.680790483952,0.697888553143,0.135806143284,-0.320434480906,0.436054050922,-0.137734472752,0.622721910477,0.0974548384547,0.844270467758,0.290293514729,-0.29512488842,0.128763094544,-0.27716422081,0.176409006119,0.244953379035,-0.63984978199,-0.674458265305,0.457093328238,0.232093960047,0.0806603655219,-0.540887117386,0.516760706902,0.0335489735007,0.431310117245,0.0827804654837,-0.0817263796926,0.186596930027,0.0819588378072,0.131378859282,-0.312938034534,0.59489440918,-0.0429428890347,-0.413413196802,-0.903596580029,-0.0509630255401,-0.0565414652228,-0.86208075285,-0.294474393129,0.508988201618,0.0187940504402,-0.440538734198,-0.545776247978,-0.369214653969,-0.086598098278,-0.296765416861,0.0859357863665,0.283437281847,-0.0367375686765,0.119458921254,-0.854165792465,-0.0677346810699,-0.216162830591,-0.253811776638,0.834623515606,0.139913454652,0.440047264099,0.205352157354,0.0624217987061,-0.355555266142,-0.191969037056,-0.84724932909,-0.206395566463,-0.451559871435,-0.178388431668,0.220018088818,0.321495115757,0.004155497998,0.303484618664,-0.131050959229,0.293168634176,0.464441239834,0.424086332321
"cz~",0.366338282824,-0.112899720669,0.601679623127,0.200215682387,-0.303668260574,-0.0540069639683,-0.630989193916,0.564508616924,0.112096175551,0.364898324013,0.268310546875,-0.0647868961096,0.247755289078,-0.511020302773,1.03098869324,-0.0362240932882,0.098513096571,-0.0809520110488,-0.360137224197,-0.138685494661,-0.735379457474,-0.077660895884,0.0772005394101,-0.181002244353,0.360426306725,-0.508539557457,-0.540611505508,-0.430049151182,0.415371000767,0.246545404196,0.1482501477,0.314812928438,0.676507115364,0.456893652678,-0.0761462152004,-0.51361733675,0.473262429237,0.0446435809135,0.0250819288194,0.387647598982,-0.294653981924,0.1015977934,0.267907172441,-0.145349472761,0.0471773669124,0.0158585123718,-0.726415216923,-0.265547066927,0.147569566965,-0.295335918665,-0.650539577007,-0.0277343541384,0.255742996931,0.202770471573,-0.661494135857,-0.0715069249272,0.182845786214,-0.109325096011,-0.0611308179796,0.187644183636,-0.489575624466,-0.800017297268,0.443616598845,-0.171531587839,-0.59960860014,-0.497125983238,-0.223489448428,-0.317589789629,0.371680408716,0.357318550348,0.131835579872,-0.180007472634,0.49626031518,-0.638813316822,-0.40387275815,0.136698842049,-0.113870762289,0.566412806511,0.268343091011,0.937955617905,0.423974990845,0.588462352753,-0.711797475815,0.00167944189161,-0.0158623140305,0.0992990136147,-0.0449781231582,1.21488511562,0.246155112982,-0.144053548574,-0.0771251469851,-0.400654345751,0.0934990644455,-0.732405662537,-0.484033882618,0.200512170792,0.235259503126,-0.522803425789,-0.597833275795,-0.113551177084
"NG~",0.178125604987,0.410658448935,-0.466025024652,0.227184191346,0.346937268972,0.137948542833,-0.0934543535113,0.249255985022,0.20300874114,-0.0733290240169,0.0868779569864,0.30946546793,-0.0483643524349,0.0845111235976,0.149513453245,0.0942655950785,-0.41059756279,0.154806405306,0.684688866138,-0.30636999011,0.203983992338,0.0375143662095,-0.0936542376876,-0.132872164249,-0.16127872467,-0.0589600354433,-0.119548067451,-0.157374814153,0.324311256409,-0.0309383831918,-0.646148204803,0.0379661992192,-0.0013887580717,-0.14728794992,-0.148340582848,-0.0816390812397,0.274571806192,0.134688138962,0.421079307795,-0.0115290917456,0.0307460799813,-0.634896457195,-0.00101681891829,-0.460581541061,-0.16590796411,0.579407513142,-0.0477799735963,0.376707702875,-0.318644404411,0.116453923285,0.246523559093,0.247177928686,0.100921094418,-0.0911714285612,0.36322876811,0.393351107836,-0.144631952047,-0.168234348297,0.318055003881,0.113622806966,-0.32415625453,0.132954224944,-0.0258009601384,-0.0354226902127,-0.702719449997,-0.0737565308809,-0.571688950062,-0.118275128305,0.102124035358,0.222521573305,0.1002362445,-0.482964724302,0.348568052053,0.00407010130584,0.0716308131814,-0.187527135015,-0.101388797164,-0.233308851719,0.556107699871,0.302763104439,0.114232294261,0.050201471895,-0.310502111912,0.16079968214,0.0867518782616,0.0535615906119,0.036378134042,-0.258310496807,0.295661449432,-0.345715880394,-0.0332165062428,-0.698521196842,0.100794218481,-0.0210772678256,0.0681005194783,0.18704213202,-0.115673087537,0.221587821841,-0.128578186035,-0.276897519827
"ph~",-0.429833889008,-0.187124863267,0.617781221867,-0.104441441596,0.344041466713,-0.217694059014,0.357886373997,-0.320302039385,-0.191115289927,-0.247720420361,-0.354200303555,-0.127951100469,0.20213906467,-0.0156505182385,-0.544265449047,-0.0866851881146,-0.126529037952,0.0319350920618,0.217017397285,-0.37795817852,0.120997928083,-0.110292628407,0.0392576754093,-0.168611332774,0.114576607943,-0.020369052887,0.0822095572948,0.221474707127,-0.0817647576332,-0.324866652489,-0.24354596436,-0.340418994427,-0.551719129086,-0.0389644540846,-0.227818354964,0.195769280195,-0.145116508007,-0.384358584881,0.15591853857,-0.137007266283,0.582759201527,0.100043132901,-0.000823705049697,0.124107025564,-0.142292529345,0.10075083375,0.114078320563,-0.0146650625393,-0.0934223532677,0.337171345949,0.28209862113,0.167006954551,-0.0175198521465,0.501577138901,-0.0606657192111,-0.100203856826,-0.0454812310636,0.0518770255148,0.320063740015,0.0710258334875,-0.0765975639224,-0.154010564089,-0.181338950992,0.0482151247561,0.142004430294,0.381105750799,-0.0377395786345,-0.218805119395,0.198552832007,-0.09835280478,-0.370578825474,0.00421324698254,0.530801177025,-0.0633989349008,0.0263646487147,0.389769285917,-0.246311590075,0.159738019109,0.0171458087862,-0.0592397153378,-0.0828403756022,0.0463827103376,-0.0893004536629,-0.085397310555,0.453032135963,0.0190493185073,-0.260752618313,-0.225413531065,-0.127055257559,0.275371193886,0.232387453318,0.169078961015,-0.110431134701,0.217690214515,0.414926439524,-0.13359875977,0.0418949723244,-0.14149838686,0.0389593020082,0.147704392672
"5Ch$",-0.0776330083609,-0.247335717082,0.355509340763,0.32586479187,-0.771786034107,-0.0281539000571,0.199304208159,0.00202510249801,-0.000690253509674,0.294212341309,0.446396172047,0.165276616812,0.0894454196095,0.0831105336547,0.247706562281,0.0769312903285,0.500995576382,-0.153562098742,0.049216452986,-0.480545610189,0.236866012216,0.00971044134349,0.191850855947,0.0390454754233,0.513466358185,-0.160572439432,0.276113212109,-0.0528880916536,-0.253073126078,0.210514545441,-0.051282864064,-0.290023416281,0.3946005404,-0.205776020885,0.441897571087,0.169987440109,0.383146136999,0.27405616641,0.751686573029,-0.0555783137679,0.145795688033,0.0156243061647,-0.230383306742,-0.205576762557,-0.107100620866,0.0502489320934,0.131983444095,0.354789942503,-0.11307913065,-0.387834370136,-0.543594241142,-0.121111683547,-0.564954996109,0.0575294606388,0.44129177928,-0.250052899122,0.157316997647,-0.111145526171,-0.0476412288845,-0.206785410643,-0.0741396248341,-0.316184192896,-0.141945704818,-0.295166224241,0.352293342352,-0.303771644831,-0.0906297340989,-0.492041617632,0.0710499361157,0.10267931968,0.302542209625,0.106974631548,0.374332755804,0.220589011908,-0.389425545931,-0.626991033554,0.358672559261,-0.176994740963,-0.307971388102,-0.554470717907,0.344042092562,0.548719882965,0.172948077321,0.194536373019,0.603056967258,-0.0347878262401,0.363604605198,-0.775690555573,0.0125189432874,-0.0459551364183,0.183454468846,0.241240039468,-0.260046243668,-0.200934901834,0.195260509849,-0.00802758708596,-0.389060407877,0.150060132146,-0.0981867089868,0.227897539735
"vh~",0.231220170856,0.360381811857,0.0235488954931,-0.249156937003,-0.381933689117,-0.110237330198,0.200586602092,-0.192857816815,0.0343250483274,0.512273848057,0.304145753384,0.453138798475,-0.700667202473,0.357070624828,-0.148621231318,0.238871306181,0.0797620862722,0.26630744338,-0.151718020439,0.754078030586,0.120563484728,0.367978900671,0.132982552052,0.303972184658,0.179631814361,0.308916658163,-0.0455885827541,0.302981466055,0.0775688886642,-0.0010374361882,0.3722833395,0.154093280435,-0.447060376406,0.101440317929,0.340127319098,0.0710428282619,0.117228105664,0.0606803819537,-0.156469300389,-0.121704258025,0.139922752976,-0.0115514174104,0.583287894726,0.0215445104986,-0.073276348412,0.078709192574,-0.190499007702,0.536425173283,0.0413012579083,-0.640483319759,0.314448446035,-0.00158869300503,0.921313226223,-0.113555982709,0.100614406168,-0.0284046325833,-0.202878117561,-0.634396314621,0.180332109332,-0.438155442476,-0.363861531019,0.241120710969,-0.0705724358559,0.179155439138,-0.382598847151,0.162452891469,-0.0672306716442,0.0757272168994,-1.09849011898,0.285339295864,0.0530719272792,-0.390773892403,0.21701335907,0.710762917995,0.199121519923,0.00432470114902,0.194117769599,-0.186100423336,-0.081710100174,-0.0937239304185,0.0263014249504,-0.070312358439,0.156566992402,0.0219610631466,0.472564548254,0.181531652808,0.135942056775,-0.525256931782,-0.02533839643,0.0464471541345,-0.292961865664,0.391956686974,-0.123861610889,0.381064146757,0.340711921453,-0.154005095363,0.194653108716,-0.0419841744006,-0.163153931499,-0.179300382733
"yw~",-0.164929941297,-0.100715011358,0.0259967129678,-0.0729913860559,-0.155980542302,-0.0596659146249,0.727455914021,-0.31055405736,-0.131641030312,-0.55798715353,-0.041596557945,0.415148437023,0.150297701359,0.202990919352,-0.125529929996,-0.138963848352,-0.393378794193,0.050103995949,0.0367448702455,0.190676420927,-0.0964212417603,-0.193925410509,0.38235360384,0.0877632573247,0.0728448033333,0.130022540689,-0.232680380344,-0.30805978179,0.145202845335,0.208506807685,-0.504194378853,-0.368153721094,0.470191955566,0.356939584017,-0.104664430022,0.182655259967,0.0791533589363,-0.774626553059,0.303516447544,-0.339203566313,0.0562072619796,0.135175302625,0.379380762577,-0.0908641293645,-0.263645619154,0.285734832287,0.528625428677,0.00954332016408,-0.848469018936,0.960957467556,0.478347271681,-0.234642237425,-0.700768887997,-0.466823130846,0.231514543295,0.121899969876,-0.0915900170803,0.578569769859,0.0910894274712,-0.193873405457,0.493976980448,-0.281452447176,0.323611706495,0.0304718259722,0.107757486403,-0.367245823145,-0.0542515479028,-0.0695704966784,-0.00888707023114,-0.417232573032,0.609603643417,0.180717781186,-0.357328593731,0.418601572514,-0.304036825895,-0.21115309,0.0676581785083,-0.333941787481,0.483087480068,-0.392997473478,0.0131533714011,0.890206575394,0.311467289925,0.448734968901,-0.581457793713,-0.271768599749,0.0761160701513,0.4964376688,-0.0953784659505,0.384894967079,-0.41485863924,0.198715016246,-0.163409203291,0.949560880661,-0.0242692232132,0.50885862112,0.665409207344,0.691541910172,-0.0594823807478,-0.614950895309
"dyh$",0.214072108269,0.189542040229,-0.709345519543,-0.134893208742,0.344290584326,-0.482026338577,-0.0719992890954,0.0420032925904,0.487935394049,-0.174117222428,-0.00676432158798,0.56501865387,-0.0502067767084,0.225714504719,-0.105935528874,0.176333412528,-0.277958035469,-0.0857436880469,0.00929879955947,0.3406252563,0.109698347747,0.648352265358,-0.439781457186,-0.420217692852,-0.170419186354,-0.17843015492,-0.11703209579,0.25875172019,-0.151188418269,0.0909770280123,-0.290618151426,-0.177576437593,0.0419155620039,0.498305767775,-0.360104292631,0.208893343806,0.242579966784,-0.176037505269,0.163367182016,-0.121458292007,-0.071428284049,-0.406327188015,-0.0325111560524,-0.186421126127,-0.179761126637,0.0898190960288,0.263208031654,0.280748695135,0.460337847471,0.0899872556329,-0.0403099469841,-0.299617469311,0.14144565165,-0.480090141296,-0.0638885274529,-0.0206943564117,-0.2179980129,-0.00456075370312,0.29203492403,0.423116356134,0.1146998927,-0.097102150321,0.020097984001,-0.149778604507,-0.0211124997586,0.383444011211,-0.173019573092,0.223922967911,-0.0196596812457,0.0276244804263,-0.48304194212,0.203902825713,-0.364669919014,0.278242766857,-0.448436141014,-0.0745025128126,0.0349560044706,0.261483639479,0.0553061254323,0.0716284587979,0.166530579329,0.39178621769,0.0647313818336,0.0726030692458,-0.0359030142426,-0.0478497929871,-0.26129835844,-0.227524772286,-0.285279095173,0.270079284906,0.225634947419,0.091413512826,-0.0585385151207,0.0091842636466,-0.0357999540865,0.267487823963,0.193302959204,-0.646484434605,-0.0909139588475,-0.0642722547054
"dl~",0.584914326668,-0.091905862093,-0.0526227019727,-0.235593616962,0.439365684986,-0.506965100765,0.381905317307,-0.171497762203,-0.0644015744328,-0.193746551871,0.0645497813821,0.719391942024,0.0513051189482,0.0406348593533,0.0224299412221,-0.149465024471,0.136604383588,-0.0586410798132,0.777488648891,0.112902775407,0.188935399055,0.590039789677,0.0438010171056,0.0553865246475,-0.00253239623271,0.0416683144867,0.081737652421,-0.147848024964,0.191086620092,-0.206652119756,-0.518182992935,-0.358687728643,-0.122173897922,-0.0854157656431,0.631411969662,0.175889149308,0.477395653725,-0.541558921337,0.429473310709,0.0594959780574,0.56570237875,-0.280675441027,-0.064295552671,-0.159244522452,0.180788084865,-0.125241190195,0.139659821987,0.742944300175,-0.272666543722,0.144328951836,0.108850620687,-0.281953126192,-0.152356877923,-0.208174988627,0.448275387287,0.0428045876324,-0.342543154955,-0.174265488982,0.350268661976,-0.0705430656672,0.160452827811,0.364209860563,-0.136619344354,0.204083457589,0.257579892874,0.073592081666,0.129488512874,0.115422338247,-0.280464023352,-0.315450698137,-0.215008676052,-0.463914394379,0.150174111128,0.735373795033,-0.732951760292,0.0472990237176,0.118281789124,-0.539504528046,-0.32936117053,0.0128622278571,0.131610244513,0.895486652851,0.437156021595,0.445710152388,0.00896082166582,-0.0614283829927,-0.162294119596,-0.333881825209,-0.677832365036,-0.129023358226,-0.0676170065999,-0.208767071366,0.343716651201,0.411037236452,0.717679023743,-0.233089148998,0.558239638805,0.249318644404,-0.516195893288,-0.249462634325
"k7y$",0.205245777965,0.0471890345216,0.163960680366,0.27982828021,-0.442578315735,-0.291059195995,-0.0399312824011,-0.0574345029891,0.302934318781,-0.35702174902,-0.264930337667,-0.250032871962,0.283842474222,0.212237223983,-0.0251929592341,-0.185004815459,-0.329946011305,-0.12107091397,-0.163824111223,0.258226156235,-0.0577999874949,-0.108570292592,-0.117385543883,-0.0772195979953,-0.18446457386,-0.0851299166679,0.357798397541,-0.176900073886,-0.0597898103297,0.100256443024,-0.277892589569,0.392838656902,0.11428835988,0.26163393259,0.130398735404,-0.0443008132279,0.114175677299,-0.21205753088,0.333722442389,0.406292170286,-0.262271255255,-0.346113920212,-0.00276220310479,0.341969847679,0.302087634802,0.303412735462,-0.0943168997765,-0.284119069576,-0.0137447044253,-0.172816365957,-0.147002384067,-0.167759805918,0.264364629984,-0.42777761817,-0.248065292835,0.330496639013,-0.163612887263,0.0983278676867,-0.353739798069,-0.336183845997,0.370849013329,0.311363428831,0.0658206641674,0.277524620295,0.341499626637,-0.268386423588,0.0173434335738,-0.214798003435,-0.0579896047711,0.0696909874678,-0.0297768432647,-0.108315423131,0.133978739381,0.425514519215,-0.179644331336,-0.151823565364,0.229424089193,0.169038906693,0.0115865198895,-0.12706117332,-0.31443592906,-0.113460622728,0.393830686808,0.21382458508,-0.126074105501,-0.356017291546,-0.0730168372393,-0.015279491432,0.28706869483,-0.188735201955,-0.263440310955,0.107593491673,0.444442600012,0.0785849094391,0.227411001921,-0.21552413702,0.181482106447,0.270260810852,-0.396536111832,-0.284427821636
"n!w$",0.397000074387,-0.0875545442104,0.112768515944,-0.245755419135,-0.114935845137,0.382501780987,0.228911846876,0.314554423094,-0.280234307051,0.0159694235772,-0.0928797870874,0.344608396292,-0.226345449686,0.311233401299,-0.209449633956,0.24167175591,0.0255640912801,0.372786551714,0.0472392402589,-0.421968430281,0.416801512241,0.300530463457,0.238934114575,-0.0336289182305,-0.317452132702,-0.0466907285154,0.117014482617,-0.311524510384,0.372317016125,-0.233768358827,-0.397847861052,0.24385009706,-0.377847671509,-0.14499565959,0.102837994695,-0.317308187485,0.232819065452,0.213405698538,0.100231908262,0.270492821932,-0.0936959534883,0.110423840582,0.0183713901788,0.199816942215,-0.301651656628,0.275126636028,-0.101629972458,0.390824198723,0.13222399354,-0.265014439821,0.241224437952,-0.386286199093,0.017456298694,0.00650894455612,-0.0977191850543,0.110044822097,-0.203136652708,-0.351322054863,0.349386781454,0.176805391908,-0.093652755022,-0.0969118252397,-0.142928376794,0.345273911953,0.0574742294848,0.114211410284,-0.371204108,-0.176346197724,0.127046197653,-0.21190610528,0.175021514297,0.0618927925825,-0.304001420736,0.336564809084,-0.322605222464,-0.126137167215,-0.19837872684,-0.15784701705,-0.107376478612,-0.253094494343,0.193954393268,0.380249708891,0.347428381443,0.359017014503,0.374891936779,-0.413471877575,-0.0496415793896,-0.153232783079,0.138900250196,-0.275921165943,-0.167377814651,0.215029299259,0.165483534336,0.00939720962197,-0.106013081968,-0.297306388617,-0.11839132756,0.316608250141,-0.318153709173,-0.394856452942
"hN~",0.175707623363,0.161056369543,0.266685068607,0.0902715325356,0.359655231237,0.16065685451,-0.111811190844,0.157595217228,0.0590609870851,0.385351777077,0.316853761673,-0.0919446498156,-0.368265897036,-0.0245134811848,0.0120997894555,0.161627039313,-0.353765368462,-0.0439440719783,0.099862895906,-0.125334873796,0.0243573170155,0.0424668192863,0.153513297439,-0.330743312836,-0.278332620859,0.242173776031,-0.0540120191872,-0.0680494084954,0.457335948944,-0.173930197954,-0.389126360416,-0.218252256513,-0.306582421064,-0.305282324553,0.376251250505,-0.181761175394,0.0785946771502,0.434991776943,0.197000190616,-0.0531458184123,0.0195218008012,-0.196902319789,0.154212474823,0.242931291461,-0.377551913261,0.338430732489,-0.236895188689,0.231108903885,0.19764688611,-0.336540400982,-0.113337092102,-0.0899828001857,0.362309753895,-0.390506833792,0.26444503665,0.406273782253,-0.0578217096627,-0.44392490387,0.128088951111,-0.301068812609,0.0966599807143,-0.0314097888768,-0.28327396512,-0.02968705073,-0.302659749985,0.121006466448,-0.162732005119,-0.121829390526,-0.181962102652,0.156074941158,0.289027035236,0.148705542088,-0.234964638948,-0.254891991615,-0.312368869781,-0.315032064915,-0.117503792048,-0.312974542379,0.308591842651,0.246585235,-0.21346463263,-0.0560879409313,0.057824794203,0.367381930351,0.310924857855,-0.126612976193,-0.45382386446,-0.060894202441,0.385556429625,-0.282125771046,0.204467192292,0.112218335271,0.41223859787,0.0747205093503,0.0518490038812,-0.00546323694289,-0.0961116477847,0.299340009689,-0.390371412039,-0.446011424065
"Sv~",-0.158158585429,0.13203920424,-0.301279783249,0.279399842024,-0.0448512658477,-0.196744725108,-0.252157986164,0.153671115637,0.306796252728,-0.311240166426,-0.143125712872,0.0584454201162,0.055889852345,0.14899598062,0.101962059736,-0.0100595792755,-0.180908605456,0.260213196278,0.329688221216,-0.346294701099,0.277142941952,0.137107998133,-0.205359116197,-0.29140868783,0.101717345417,-0.0711533427238,-0.0687265619636,-0.251320511103,0.0549685619771,-0.104646600783,-0.235937312245,0.237433150411,0.32351154089,-0.231288433075,0.228365004063,-0.326364904642,0.318823128939,-0.307609528303,0.27757397294,0.0991580858827,-0.295444637537,-0.248338118196,0.233647242188,-0.0533702298999,-0.289314836264,0.356173545122,-0.0942132622004,-0.0986016690731,0.0356848649681,0.070419728756,-0.112752445042,-0.241009309888,-0.255429238081,-0.304827839136,-0.0764458402991,0.241651013494,0.25577300787,0.0603849478066,-0.221633151174,0.157592326403,0.243197992444,-0.357771068811,-0.244721576571,0.195426374674,0.0581646300852,-0.304123789072,-0.236281722784,0.0645382031798,0.0190799441189,0.180631145835,0.153849884868,-0.115319773555,-0.0736141428351,0.216650992632,0.213078334928,-0.103297926486,0.226748228073,-0.208433195949,0.261821448803,0.208435684443,0.0571614690125,0.0550421252847,0.0340586081147,0.242833346128,-0.209815010428,-0.225986227393,0.074268437922,0.288831263781,-0.218844413757,-0.285118609667,0.292307674885,-0.339219629765,0.302269250154,0.330819070339,0.0427212901413,0.209733217955,-0.140318527818,0.218629673123,-0.226735249162,-0.309889793396
"Ngx$",0.341831564903,0.20443482697,0.200121149421,0.383649915457,-0.259682148695,-0.238492622972,0.12918408215,0.282339304686,-0.135545060039,-0.157895460725,0.0808992907405,0.14118103683,0.0240105148405,0.3665535748,-0.161807030439,0.18977701664,-0.17959856987,0.311119496822,0.298183202744,0.0148563794792,0.278944522142,0.355612397194,0.187365099788,-0.0072682891041,0.208384245634,-0.0809331387281,-0.0347241833806,-0.364880055189,-0.226138278842,0.208727747202,-0.322972565889,0.315187990665,-0.0710850208998,-0.368470996618,0.364859491587,0.0190876703709,0.407004088163,0.0803405866027,0.26059409976,0.364912718534,0.265375167131,-0.177077323198,0.129884660244,0.196934774518,-0.333180308342,0.332178294659,-0.322061538696,0.28599473834,0.0736192837358,-0.222740113735,0.124917864799,0.0305651500821,-0.402955889702,-0.115273594856,0.0628486573696,0.0550321787596,0.341853737831,-0.0264796093106,-0.307649433613,0.326465576887,0.0964669957757,-0.132065981627,0.124927140772,0.205190762877,0.235522553325,-0.322747796774,-0.180945679545,0.0447773635387,-0.166990861297,-0.211147576571,-0.176576286554,-0.224459394813,0.00125982414465,0.245172828436,-0.102102532983,-0.214373365045,0.207883149385,0.11416618526,0.194701626897,-0.294707685709,0.1052262187,0.148104265332,0.0960914865136,0.333911508322,0.352112531662,-0.341881304979,0.049484051764,-0.334167450666,0.268303662539,-0.260517627001,-0.30486124754,-0.185907557607,0.351473271847,-0.0903150439262,-0.229966178536,0.0158366020769,-0.11504201591,0.363893896341,-0.286122351885,-0.325510680676
"5dy$",-0.377251058817,-0.336452871561,0.213378861547,-0.280593156815,0.136363774538,-0.473301112652,-0.0589881539345,-0.206895396113,0.0969021171331,-0.139144644141,0.0388074032962,0.482161104679,-0.0778981149197,-0.190433099866,-0.343287110329,-0.0959938913584,-0.311087012291,-0.196455433965,0.181758180261,0.606922924519,-0.188521116972,-0.284995377064,-0.0780627503991,-0.171985894442,-0.278858065605,0.660664200783,-0.00744011066854,0.888486742973,-0.221630245447,-0.0779713615775,0.221730843186,-0.51542454958,-0.00544177740812,-0.0430012568831,0.142724886537,0.589265584946,0.000263427296886,0.0213302429765,-0.455128848553,-0.174797490239,0.249854266644,0.379909276962,-0.24125353992,0.0506222322583,0.212531030178,0.167595118284,0.373505294323,0.220463901758,0.305286377668,0.415136277676,-0.493722140789,-0.613201439381,0.0828304588795,-0.469834089279,0.137553200126,0.167282938957,-0.368099957705,-0.127646967769,0.26157528162,-0.21971128881,-0.0762096643448,0.179527029395,-0.122805640101,0.0405079014599,0.194993421435,0.271820664406,-0.0844797044992,-0.182402908802,0.285042375326,0.27230411768,0.0739151984453,0.0108049819246,-0.335144400597,-0.371754020452,-0.113460168242,-0.143303081393,-0.92950630188,-0.365018427372,0.0172837227583,-0.111685372889,0.688816845417,-0.36229762435,-0.158947587013,-0.210633352399,0.398045867682,0.064225576818,-0.179501831532,-0.517576813698,0.0032201919239,0.119307599962,0.256562829018,0.44412741065,-0.145411387086,-0.405992001295,-0.920660257339,0.239034026861,-0.216367065907,0.00763183552772,0.328710585833,0.331216692924
"XX~",-0.0358818881214,0.108277566731,0.524214506149,-0.0349661149085,0.427487969398,-0.00908866524696,0.333891928196,0.282836794853,-0.210944831371,0.152784377337,0.313672661781,0.374146014452,0.136527478695,-0.168396577239,0.480993330479,-0.189195796847,0.187424108386,0.300411820412,-0.220326304436,0.186005607247,0.109506413341,-0.0554759576917,-0.328346818686,-0.0761635601521,-0.110137820244,-0.175279453397,-0.163283646107,-0.223635271192,0.0208583474159,0.0605604574084,0.302452921867,-0.296121358871,-0.319343805313,-0.153259634972,-0.126710370183,-0.318711668253,0.187917262316,-0.0732557624578,0.412653833628,0.0931854397058,-0.155222117901,-0.0771623328328,-0.359168618917,-0.164115220308,-0.568075299263,-0.189823716879,-0.141947567463,-0.613613009453,0.355680435896,-0.211049497128,0.595995545387,0.244429588318,-0.289408028126,-0.565398573875,-0.302753597498,0.180271163583,-0.201019704342,0.0343743413687,0.275982290506,-0.478127688169,-0.462437391281,-0.366071105003,-0.118173889816,-0.501605153084,-0.579631865025,0.0227398406714,-0.0334744118154,-0.159461900592,-0.44516274333,0.333343058825,0.242977127433,0.0972702130675,-0.0686242580414,-0.0764473229647,-0.406883627176,-0.531206011772,0.0688389390707,0.0669639185071,-0.205498799682,0.314133524895,0.229569211602,-0.00149282894563,-0.378122061491,0.045720025897,0.121607810259,0.447435289621,-0.0108769582585,0.251008272171,-0.208946987987,-0.392091393471,0.117896713316,-0.0484885536134,0.281748324633,0.168809249997,-0.366049170494,-0.127431705594,-0.0442242920399,0.0823251008987,-0.180514469743,-0.0453326478601
"mph$",0.604467689991,0.215569376945,0.323779761791,0.271984249353,0.226027190685,0.0382688418031,0.159241020679,-0.0116454614326,-0.349777549505,0.215281009674,0.109524160624,0.472472190857,0.142850622535,0.76397049427,0.273252695799,-0.262248814106,0.646319627762,-0.49973359704,-0.290469974279,0.0855768918991,-0.0467821247876,0.204619690776,0.189158812165,0.229981318116,0.00751507980749,-0.118678331375,-0.187188088894,-0.0598815195262,0.237042456865,0.704456269741,0.0570047982037,-0.0561532191932,-0.323156833649,0.0259909369051,0.0863987505436,0.294352471828,0.340965151787,-0.798308312893,0.269081771374,0.337986588478,0.198209837079,0.0392790362239,0.404125630856,0.25380384922,0.410298705101,-0.318124592304,-0.160965338349,0.258609861135,0.203401595354,0.0228628627956,0.106188431382,0.185405239463,0.135789632797,0.223106622696,-0.57236212492,-0.0998003035784,0.32774952054,-0.258183479309,-0.192924380302,-0.0010304513853,-0.00640761479735,-0.303335785866,0.253153175116,0.23246280849,0.463189423084,-0.0900902301073,-0.153480619192,0.491350799799,-0.046807397157,0.0132059790194,0.168598562479,0.249343410134,-0.221297308803,0.0121459085494,-0.249914094806,0.507904350758,0.650791227818,-0.00867302156985,-0.310395181179,-0.239522382617,0.0126179708168,0.246260687709,-0.385412037373,0.131381958723,-0.0113046308979,0.0791988968849,-0.0300723928958,0.0491295680404,0.0126261683181,0.109681233764,-0.0330120436847,-0.0991009548306,0.177543580532,0.143200263381,-0.320598870516,0.270181238651,-0.663064658642,-0.16188159585,0.139032021165,-0.100938566029
"pS~",0.15428340435,0.0174433961511,0.151015177369,0.246806412935,-0.193994864821,0.471426516771,-0.137902289629,0.43492218852,-0.234876230359,0.354109287262,0.327824681997,-0.00393352331594,-0.0472289398313,0.474271148443,-0.419091165066,-0.336223632097,0.318693220615,0.358115702868,0.51281017065,-0.455445110798,-0.0995699614286,0.162256389856,0.284887820482,0.0758696272969,0.138856872916,-0.326586455107,0.310677528381,-0.506545782089,0.000856639933772,-0.137112259865,-0.504843533039,0.0500545911491,-0.0196659434587,-0.54903614521,0.642152547836,-0.332736879587,0.669475495815,0.112596452236,0.192707747221,0.118356503546,0.158791273832,-0.547959029675,-0.101294733584,0.0786878764629,-0.506097614765,0.51643717289,-0.000506816024426,0.171186238527,-0.0663830041885,0.320819944143,-0.0419767834246,-0.150491952896,-0.464124500751,0.000441809068434,0.153309822083,-0.0172913260758,-0.147437736392,-0.428260147572,-0.266852498055,-0.178873673081,0.0148605415598,0.0382274873555,-0.297722518444,0.238450273871,0.360322982073,-0.25229793787,-0.368328511715,-0.45567047596,0.220804020762,-0.0976147279143,0.0178003069013,-0.641196966171,-0.0353760011494,0.222409710288,-0.0835066735744,-0.246351450682,-0.0074552227743,-0.0898289829493,0.32833942771,0.218631342053,-0.112889461219,0.410492241383,0.28298085928,0.483834773302,0.492087334394,-0.534751474857,0.0852933377028,-0.424271166325,-0.0905421748757,-0.286816447973,0.429991960526,-0.584723770618,0.319957256317,-0.0387744121253,0.370563715696,-0.407562017441,-0.0804205685854,0.0928782075644,-0.29680070281,-0.653308808804
"wn~",0.409647852182,0.590541243553,0.419852524996,0.00544044189155,0.419449090958,-0.371384084225,0.115981973708,0.0215583909303,-0.161361098289,0.253773778677,-0.338942468166,-0.378595679998,0.0689178854227,-0.149188399315,-0.0330761894584,0.0725206583738,0.220369562507,-0.243446722627,0.295634835958,0.244858399034,0.360918998718,-0.0427496209741,-0.14858430624,-0.121913395822,0.614235579967,0.234337419271,-0.0926520377398,0.231911197305,-0.322341710329,-0.130388587713,0.113259293139,-0.0640419572592,0.265430361032,0.365229994059,0.00447897752747,-0.226208359003,-0.189253091812,0.233813673258,0.22760425508,-0.496650725603,-0.108254350722,-0.221510514617,0.101623602211,-0.268865436316,0.225149556994,-0.242381364107,0.369626373053,-0.13572755456,-0.0504206232727,-0.619014978409,-0.0122555019334,0.43354767561,-0.309861212969,-0.341980546713,0.0334865003824,-0.491481125355,-0.00190264941193,0.172697812319,-0.198670506477,-0.526549756527,-0.125898987055,-0.342324137688,-0.270243167877,-0.642678022385,-0.0852837562561,-0.000873563112691,-0.0474654175341,-0.136062026024,-0.129277378321,-0.202875480056,-0.0348612740636,-0.0805731639266,-0.0874521508813,0.15905341506,0.426302552223,-0.079746991396,-0.0196245610714,0.306513488293,0.287917554379,-0.445080816746,-0.138207569718,0.323329806328,-0.306137919426,0.0938256382942,-0.0529894083738,0.195151329041,0.147424548864,-0.477985203266,-0.531358361244,0.101326808333,-0.357565015554,-0.025349676609,-0.0155191058293,0.744532644749,0.00299728289247,0.334658384323,-0.293013632298,0.399561226368,0.553975582123,0.154121398926
"Nm~",-0.235040739179,-0.62630623579,0.580183565617,0.226518452168,-0.174155071378,-0.0973712056875,-0.159310802817,-0.468341827393,-0.0669635236263,0.0933559089899,-0.412924528122,0.549452841282,-0.0197071358562,0.637737691402,-0.108626164496,-0.375461012125,0.434045284986,-0.195833191276,0.0849073305726,0.0433314032853,0.0943142920732,0.379326999187,0.203407987952,0.0315446928144,-0.139248907566,-0.596828043461,-0.621371686459,-0.165085062385,0.267893731594,0.260193228722,0.4104578197,-0.673874795437,-0.333045512438,0.129603177309,-0.269322663546,-0.0104956943542,0.327777892351,-0.271588593721,0.280624628067,0.073073938489,-0.120143011212,-0.290122866631,0.0903369858861,0.132484570146,-0.00247004302219,-0.440013974905,-0.105645395815,0.203946024179,-0.0648112297058,0.13339202106,0.63209104538,0.274356842041,-0.109170980752,-0.374804466963,0.26849809289,-0.321645259857,-0.0143309347332,-0.232077822089,-0.109221890569,-0.386903315783,-0.116945303977,-0.0615421012044,0.187924310565,-0.218250125647,0.134416624904,-0.0267562009394,-0.0769103243947,0.278037041426,-0.344114392996,-0.208100929856,0.41991558671,-0.352575242519,0.228555798531,-0.072406552732,-0.152950152755,0.372812777758,0.177564844489,-0.407857447863,0.145290017128,0.469443887472,0.27847391367,-0.0311349481344,0.115551196039,-5.52835372218e-05,-0.173243030906,0.679886519909,0.0998464524746,0.337674409151,-0.542203128338,0.231039389968,0.316712975502,-0.538426220417,-0.148732125759,-0.146189644933,0.301773011684,0.206668436527,-0.393734127283,-0.233550563455,-0.412679642439,0.357420682907
"C",0.137802481651,-0.0611317716539,-0.123887710273,-0.342820376158,-0.0245260763913,-0.267498582602,-0.138494372368,-0.201728418469,-0.16770991683,-0.0420878715813,0.017200158909,0.170268520713,-0.0606456622481,0.153357967734,-0.167302340269,-0.058440849185,-0.00445846840739,-0.016300112009,-0.0757370665669,-0.0316137038171,0.0609721243382,0.30579417944,-0.192474395037,-0.131634548306,-0.00709995254874,0.182582080364,-0.0176572836936,0.23552082479,0.188370242715,-0.121252164245,0.114278979599,-0.154283061624,-0.207947582006,0.105567835271,-0.0448610186577,0.0377260223031,-0.0717897117138,0.0279859919101,-0.0993235185742,-0.11832241714,0.163902431726,-0.102720998228,0.228520870209,0.0807348415256,0.166554242373,-0.0947775989771,0.0894638001919,-0.0116551453248,-0.00859371758997,-0.126003175974,-0.200235843658,0.041704852134,-0.24373473227,0.220528587699,0.0878475680947,0.142612785101,0.128283888102,-0.167268231511,-0.0857578366995,0.046544983983,-0.118268862367,0.226259112358,-0.122192665935,-0.0138227343559,0.321755588055,0.177756130695,0.0677908584476,0.0115729114041,0.0806427896023,-0.101154081523,-0.0511857829988,0.165592774749,0.0226473044604,0.295437932014,-0.0588819272816,0.0659968480468,-0.178262576461,-0.00101493531838,0.117627464235,-0.27934807539,0.0657349452376,0.178676947951,0.234811156988,0.0800011083484,-0.0639091804624,-0.0666245892644,-0.0653128474951,0.191235437989,0.0535535849631,-0.00823421217501,0.0362078621984,0.108445033431,0.118630968034,0.137087747455,0.101409971714,0.292708098888,-0.0297164358199,0.114051818848,-0.123958013952,0.0647535845637
"yt~",-0.17019508779,0.232603892684,-0.194933176041,-0.468991219997,0.202519789338,-0.199855625629,0.0885958075523,0.0985574945807,-0.0164273548871,-0.27965682745,-0.0774891525507,0.0477831922472,-0.1805755198,-0.258897095919,-0.410007834435,-0.0428862124681,-0.0389951430261,-0.00462976144627,-0.633020281792,0.224906817079,0.265038967133,-0.153268992901,-0.418515026569,0.356822550297,-0.276179850101,0.08820451051,0.171450853348,0.172723814845,-0.0891060680151,-0.503359735012,-0.0155068235472,-0.0930843576789,-0.00565575342625,0.23807130754,0.0452453382313,-0.123304113746,-0.0859915092587,-0.0242951400578,0.265898495913,-0.543157398701,-0.324801832438,-0.411621123552,-0.553327560425,-0.00170483684633,0.202903345227,0.147823512554,0.551213860512,-0.00144136953168,-0.0398503094912,0.0201866421849,-0.21352083981,-0.103854715824,0.313513845205,-0.00450758403167,-0.0768358930945,-0.376237154007,-0.451774418354,-0.184309765697,-0.207292452455,-0.470422655344,0.0738682001829,-0.221693634987,0.48544600606,0.114473313093,-0.732813954353,0.0671672299504,-0.0544610470533,-0.222199767828,0.327576041222,0.292384773493,-0.113878123462,0.666723489761,0.106256820261,-0.0330341309309,-0.0256864912808,-0.698284029961,0.0153771610931,0.238981083035,-0.144839555025,-0.22897657752,-0.0114443963394,0.0525364391506,-0.293609261513,-0.0702061504126,-0.410369664431,-0.133484125137,-0.528764665127,-0.100367359817,-0.0988229960203,-0.00581327313557,-0.293126195669,-0.00283993431367,0.274817615747,-0.0777250826359,0.0150465238839,0.145288571715,0.00862932112068,-0.111103147268,-0.232802420855,-0.353199660778
"tLX$",-0.00531173404306,0.151664540172,-0.28069794178,-0.0491013452411,0.133040040731,0.0372980684042,-0.233393013477,0.098534822464,0.128847211599,0.0782419294119,0.28127849102,0.26691198349,0.104826271534,0.239900946617,0.206790760159,-0.605534434319,0.0277473237365,0.140758320689,0.341764301062,0.502897560596,-0.32963052392,-0.138253644109,-0.383863985538,0.293204337358,-0.246762990952,0.0544646717608,0.123819731176,0.266348958015,0.369984954596,-0.105315081775,0.134995281696,-0.276487410069,-0.103146791458,0.409662842751,-0.319887906313,-0.05585398525,0.319596976042,0.151077225804,-0.166954562068,0.0453793406487,-0.409811258316,-0.328696787357,0.384284257889,0.327792435884,0.0186146944761,-0.372115343809,-0.231896817684,-0.178417205811,0.167011991143,0.191429287195,-0.0795684680343,-0.145475685596,0.110934481025,-0.330191582441,-0.120042599738,0.358689427376,-0.106171935797,-0.360907167196,0.403693497181,-0.173703759909,-0.426007032394,0.426979362965,-0.29141280055,-0.21967703104,0.126994982362,0.374920338392,-0.111458733678,-0.554555237293,-0.236967220902,-0.104749381542,0.456992477179,0.187343657017,-0.188113510609,-0.0220778435469,-0.310683578253,-0.750863552094,-0.294155716896,-0.146415278316,0.238974541426,-0.169039204717,0.196099057794,0.131109774113,0.409612208605,0.162497848272,-0.192838221788,-0.0428167805076,-0.224370345473,-0.255372405052,0.454764306545,0.377548336983,0.346819907427,0.358403116465,0.306786358356,0.29384469986,0.426738113165,0.225221887231,0.607976615429,0.18459585309,-0.163729667664,0.16383767128
"kv~",-0.303696930408,0.134029567242,-0.174707010388,0.351790249348,-0.233218029141,0.440541803837,-0.0816675648093,0.396227896214,0.293398410082,-0.288380086422,-0.0289088655263,0.108189605176,-0.0478735342622,0.429414659739,-0.0681343078613,-0.797109127045,-0.271991461515,0.727552711964,0.106710493565,-0.356911331415,0.105894193053,0.155687734485,-0.17314517498,0.0338725559413,-0.0100684398785,0.171644881368,0.180794477463,0.111401595175,0.595052182674,-0.00705934735015,0.125887602568,-0.292329221964,-0.366268008947,-0.0385485216975,-0.48772162199,-0.119950398803,0.182278141379,-0.568086445332,0.157289862633,0.165740951896,-0.157596737146,-0.094270862639,0.98811173439,0.574228048325,-0.0265671610832,0.439404308796,-0.163031280041,0.100793227553,-0.265344411135,0.371472835541,0.120119184256,0.624815285206,0.0989923402667,-0.324048966169,0.531664788723,0.454579442739,0.118355512619,0.139270171523,0.610717952251,0.20744471252,-0.609076857567,0.272596627474,0.312692433596,-0.00945452880114,-0.557219743729,-0.140247762203,0.062489759177,-0.400445133448,-0.322730779648,0.0919868350029,0.173441633582,-0.259268432856,0.00522014172748,-0.278312265873,0.0960460230708,0.234664455056,0.360511302948,-0.135454326868,0.245336681604,0.294673204422,0.205294251442,0.814526200294,-0.0395941510797,0.445770412683,-0.685097336769,0.22936591506,0.052306804806,0.11937405169,0.0524633303285,0.122820243239,0.175571143627,-0.273877441883,0.371210366488,0.367681533098,0.251317411661,0.00584403239191,0.123149067163,0.628983616829,-0.241473391652,-0.295545756817
"qXw$",0.0826195627451,0.0245362240821,-0.207139521837,0.212044268847,-0.0843380764127,-0.287326961756,-0.0998305678368,-0.10364060849,-0.042217630893,0.0440961942077,0.0977897793055,0.393152236938,0.108962215483,0.0667882785201,0.201513260603,-0.0280350465328,-0.169154211879,0.135867729783,0.128079906106,0.286185264587,-0.343067824841,-0.108287125826,-0.14282733202,-0.111830696464,0.0910172462463,0.376333862543,0.0592613369226,-0.208825081587,-0.232921242714,0.127663880587,-0.114413179457,-0.2817748487,-0.411141723394,-0.0590590871871,-0.26299148798,-0.107538960874,-0.103700265288,-0.164280086756,-0.0540814958513,0.0215085335076,0.441893815994,-0.0252653043717,0.164575845003,-0.354066044092,-0.252670943737,-0.148023545742,-0.21067622304,0.173425555229,-0.132245361805,0.416400015354,0.017366565764,0.630397975445,0.230503752828,-0.244086280465,0.546804726124,0.344231188297,0.0870052054524,-0.427907079458,0.585969984531,0.387084662914,-0.279483437538,0.181466668844,0.116456851363,-0.427148520947,-0.0286210663617,0.0527681186795,0.288819521666,0.301809936762,-0.0587425865233,-0.31802341342,-0.03012425825,0.0388029851019,-0.0450196936727,-0.00377799826674,0.238777518272,0.383027523756,0.129672020674,-0.122268415987,-0.0482177473605,0.208050712943,-0.159377679229,0.541335821152,-0.17962422967,0.283864766359,-0.215285554528,-0.103953979909,0.314078956842,0.409881651402,0.0586021579802,0.378576666117,-0.0903190895915,-0.422396332026,-0.110530652106,-0.124723233283,-0.255477249622,0.141110345721,0.228904038668,0.0507612787187,-0.380983829498,0.209619060159
"nv~",-0.523296535015,0.0172186456621,-0.747105538845,-0.372431576252,0.314206331968,-0.278380185366,-0.200496584177,0.422922343016,-0.209155619144,0.485538363457,-0.0665413811803,0.105557441711,0.00820699799806,0.250875383615,0.0542143955827,-0.746184051037,-0.658093035221,-0.149220257998,0.341965347528,-0.117765143514,0.0470340028405,-0.0439307056367,-0.11270545423,0.558617532253,-0.253942400217,0.349435538054,0.0777190178633,0.465952992439,0.0555035732687,-0.410195887089,-0.352428555489,-0.328927397728,0.0558864697814,0.131130173802,-0.296539068222,-0.138518735766,0.12389164418,0.133916959167,-0.210768654943,-0.50601452589,0.0779851153493,-0.324867933989,0.181176140904,0.237594917417,0.0709418728948,0.46412935853,0.603569984436,0.219032049179,-0.739632487297,0.0705215781927,-0.394529432058,-0.145383730531,0.642226874828,-0.0158671252429,0.173751890659,-0.109601721168,-0.476212561131,-0.301358103752,-0.189649403095,-0.118985109031,0.43414157629,-0.399845957756,0.089110262692,0.5278018713,-0.0916136726737,-0.0211266484112,-0.358404904604,0.15826575458,0.31546613574,-0.00111354037654,-0.337999761105,0.262545794249,0.627203464508,0.28382769227,0.098304733634,-0.508153140545,-0.446320593357,-0.469903856516,0.410197108984,-0.0637799352407,0.292012482882,0.595812439919,0.00552952475846,-0.042621716857,-0.325394004583,-0.376808971167,-0.243263885379,0.401330977678,-0.290666520596,0.234590083361,-0.0493048913777,0.0354273617268,-0.132582694292,-0.0827701240778,-0.104833483696,0.978045701981,0.00732927955687,0.117276266217,-0.354829639196,-0.0505030117929
"ht~",0.0725791454315,-0.300338536501,-0.0471437871456,-0.195033743978,0.23851723969,-0.0827719271183,-0.187286734581,0.249546959996,0.319072365761,0.00368473236449,-0.349426686764,0.275794476271,0.468643277884,0.0464136302471,-0.158049032092,-0.4268271029,0.167576700449,-0.0653458237648,-0.0062504359521,0.293498426676,-0.215118438005,-0.325367361307,-0.33129426837,0.29611697793,-0.546427309513,-0.0396606214345,-0.186628073454,0.266905397177,-0.418508946896,-0.407045304775,0.207132712007,0.12993337214,0.243071302772,0.239832177758,-0.429877460003,-0.237405002117,0.0200981516391,-0.339222252369,-0.0600460916758,-0.245732828975,0.364164918661,-0.56521576643,0.319143980742,-0.156778559089,-0.0777397975326,0.240245744586,0.218199983239,-0.241828024387,-0.209489285946,0.0906762778759,-0.285304427147,0.0993887856603,-0.208269193769,-0.439849078655,-0.0327316299081,-0.301157057285,-0.165121555328,0.0213929060847,0.0802702084184,0.0693082436919,0.0862512439489,0.118194758892,-0.146725103259,-0.393726855516,-0.254048675299,-0.321910351515,0.203690811992,-0.00467742560431,0.282920509577,0.320167243481,-0.0501254163682,-0.0379733406007,-0.284659743309,-0.235220879316,-0.17023460567,-0.350004822016,0.100291386247,0.345775008202,0.351873457432,0.537517845631,0.167091622949,-0.0647923350334,-0.45825406909,0.281835824251,-0.422424703836,0.141719415784,-0.12476015836,0.250868231058,0.0151003412902,0.431813538074,0.427862584591,-0.0421830676496,0.0196978729218,-0.270825743675,-0.121053107083,-0.21563179791,-0.498763024807,-0.30529743433,0.0938292965293,0.282100617886
"nsm$",0.28515291214,0.145776048303,-0.316307216883,-0.31513646245,-0.0447131022811,0.168711230159,0.294560074806,0.416894316673,-0.177669838071,0.145654916763,-0.348776072264,0.149426102638,0.258895307779,-0.349397599697,-0.00290721445344,0.0230880901217,-0.317359358072,0.0302035678178,0.080081820488,0.258118778467,0.210995420814,0.349778085947,0.0814848765731,0.21694752574,-0.250215351582,-0.077457934618,0.0338025763631,-0.408385157585,-0.130863413215,-0.171824678779,-0.36121186614,0.199431851506,-0.30870616436,-0.0300234444439,-0.101148106158,-0.0661752447486,0.329762011766,-0.449053764343,0.333541452885,0.116573907435,-0.134464487433,-0.0881973132491,0.416569888592,0.245940238237,0.0893986150622,0.0216782521456,-0.0642769113183,0.379466354847,-0.109449505806,0.221724912524,-0.117707774043,-0.241721957922,0.236659705639,-0.253430306911,-0.12053040415,0.401172846556,-0.340631097555,-0.15793722868,0.146347999573,-0.122717060149,0.23967269063,0.0459666103125,-0.349766820669,0.476890295744,0.288180530071,-0.31634131074,-0.456018954515,0.159693270922,-0.301741242409,0.143258735538,0.41209346056,-0.278475642204,-0.27304661274,0.423293203115,0.0850979238749,-0.0394364409149,0.378080129623,0.260418444872,-0.104179635644,-0.0213153157383,-0.260100156069,0.100064501166,0.363657712936,0.107021935284,0.271487653255,-0.287265837193,0.203355789185,0.0387494340539,0.0422081723809,-0.0148145603016,-0.311302572489,0.327964037657,0.349697560072,0.14165507257,-0.161016374826,-0.307578504086,0.0777059271932,0.320595681667,-0.423350811005,-0.331577003002
"ncy$",-0.648496985435,0.00725183868781,0.176187485456,-0.141861766577,-0.0993876457214,0.0629248991609,0.298677533865,0.213110595942,0.31822347641,0.295763105154,-0.665198862553,0.428134173155,0.0445334836841,0.198803082108,-0.0118030849844,0.507585942745,-0.136600106955,0.57833892107,-0.171616360545,0.137887060642,-0.261777937412,0.378001213074,-0.496800541878,-0.257157772779,-0.0646410956979,0.356172174215,-0.475704669952,0.0188208147883,-0.340609103441,0.545565962791,-0.291149049997,-0.191929131746,-0.281545847654,-0.271789193153,0.328841358423,0.00986398290843,0.411122441292,0.118006289005,0.229313731194,-0.354615569115,0.16533267498,-0.321852713823,-0.265301853418,0.0586071051657,0.351259589195,-0.0122827477753,0.570633232594,0.165953010321,-0.359192281961,0.0393295399845,0.221048057079,0.0140578886494,-0.13431546092,-0.658473491669,0.629824757576,0.101721324027,-0.586184442043,-0.410128206015,-0.695115208626,-0.457311570644,0.0791670829058,0.183472439647,0.306376546621,0.19322258234,-0.206997901201,-0.377948641777,0.0529403872788,0.226057782769,-0.459707409143,0.453293651342,0.217033594847,-0.0770094096661,0.282091379166,0.613954544067,0.0763487666845,-0.247249320149,-0.204634413123,-0.00597079470754,0.620657980442,-0.110003352165,0.118043884635,0.447354227304,0.0364738553762,0.661236107349,-0.552376568317,-0.163479298353,0.0428313836455,0.328429728746,-0.577776789665,0.304935693741,0.0060658971779,0.0708777531981,0.740469992161,0.438994824886,0.899573683739,0.628580629826,0.390046238899,0.422020345926,-0.0747642070055,-0.22862611711
"mpw$",-0.0098753971979,0.254549264908,-0.277144998312,0.503188490868,0.373995095491,-0.441555380821,-0.215201929212,0.219691798091,-0.385509252548,0.44628483057,-0.299338907003,0.100237987936,0.261383652687,0.272900283337,0.0540506020188,0.249924451113,-0.843873083591,0.167587324977,0.111183978617,-0.0271271895617,-0.392937481403,0.327997684479,-0.625603616238,-0.300062328577,-0.13659003377,0.558482408524,-0.344853311777,0.949750602245,0.584299981594,-0.286588668823,-0.193098917603,-0.3421651721,-0.193216130137,-0.0838647261262,-0.515659034252,-0.261340975761,-0.329002857208,0.51752024889,-0.0836447104812,0.267633467913,-0.346868962049,-0.294353365898,-0.177529931068,-0.0734259784222,0.247252777219,0.134011790156,0.341027349234,0.374891579151,-0.147611007094,-0.0473619475961,-0.306733846664,-0.311120629311,0.212572440505,-0.311274588108,0.154089331627,-0.127501696348,-0.17273928225,0.288793385029,0.304488927126,0.0354422479868,-0.468342870474,-0.261009395123,0.239646628499,0.0512562319636,0.195637136698,0.0941158607602,-0.335478842258,0.132465258241,-0.452318280935,-0.501381754875,-0.224646508694,0.261244595051,0.26104849577,-0.0481021404266,0.276195019484,-0.672279953957,-0.553008317947,0.284846961498,0.163394317031,-0.258690237999,0.356884092093,0.294533312321,-0.194285258651,-0.337205916643,0.177038908005,-0.0948313325644,0.0710271373391,-0.0367509908974,0.284485340118,-0.415262103081,-0.104386918247,-0.191979378462,-0.0468169897795,-0.0952555164695,-0.401358604431,0.161570161581,-0.0249970946461,0.0380472429097,-0.61180961132,0.648221850395
"bhw$",0.323767572641,-0.691626667976,0.383868962526,-0.280142724514,0.304811358452,0.255037099123,-0.220264062285,-0.224618077278,0.324245423079,0.266287773848,-0.221763566136,0.0332568995655,0.567761361599,0.494429886341,0.322089284658,-0.0933524742723,0.574613571167,0.392788589001,-0.390873759985,-0.213723540306,0.228518813848,0.356322199106,-0.222865372896,0.638694763184,0.219092428684,-0.0866187289357,-0.428896725178,0.00232539093122,0.760746657848,-0.00443361001089,0.289941310883,0.213775858283,-0.271239846945,0.166725441813,-0.127729952335,0.00424051750451,0.29525822401,-0.336250275373,-0.410027444363,0.180817395449,-0.0761896818876,-0.304933875799,0.177773222327,0.066570982337,-0.708249688148,-0.0432462207973,-0.159893780947,-0.381639033556,-0.25428622961,-0.340595453978,0.669116318226,0.32476696372,-0.280293405056,0.159868001938,0.120160676539,-0.235960379243,-0.133284717798,0.339651495218,-0.269841372967,-0.609233319759,0.260374248028,-0.534285187721,0.0520734637976,0.334543287754,0.00111857359298,-0.622849524021,-0.572295069695,0.184037521482,-0.0496756285429,-0.77599132061,0.565361738205,0.351457118988,0.192468866706,-0.336541324854,0.0383179821074,0.342496395111,0.168121397495,0.134741351008,0.200504630804,0.376845747232,0.26253721118,0.0535867810249,0.16123971343,-0.135795265436,-0.395713567734,0.186792612076,-0.580581128597,0.157635316253,-0.618844032288,0.0948356389999,0.236926212907,-0.414574563503,-0.384909063578,0.373264968395,0.57153481245,0.38847091794,-0.566252350807,-0.232296466827,0.197691217065,0.208319664001
"w",0.0151093509048,0.0800374373794,0.0661521404982,0.202283516526,0.0501751787961,-0.155115574598,0.251830250025,-0.170417904854,-0.0509509034455,0.361364334822,-0.0270764157176,0.114012680948,-0.0315659344196,0.0435108542442,-0.0922277495265,-0.0143512375653,-0.00736634572968,0.0163121446967,-0.0500384010375,0.0844941362739,-0.250848144293,-0.0688237026334,0.318914264441,-0.094777725637,0.178458631039,-0.12687946856,-0.111374564469,0.295391857624,-0.0918193981051,0.0567407086492,0.109322555363,-0.0111442804337,-0.0404761470854,-0.23570767045,0.222046509385,-0.0171170569956,0.238922685385,0.141293898225,-0.0483478046954,-0.146387308836,-0.0571181997657,-0.220715537667,-0.0626932233572,0.0732509493828,0.0477674454451,-0.0120817264542,0.0553483553231,-0.0390091948211,-0.220008909702,0.122249007225,-0.0602861084044,0.0302342753857,0.0118999062106,-0.0663190111518,0.0870561376214,0.0547520406544,0.0233716089278,-0.233799651265,-0.18323944509,-0.044495228678,-0.0403668992221,-0.052955083549,-0.0484418533742,-0.0094531532377,-0.0132810855284,-0.0398604497313,0.108142472804,-0.0699027478695,-0.181452423334,-0.0818179771304,-0.132445320487,-0.0329038091004,0.033357616514,-0.169251397252,0.285298109055,0.230227679014,0.0182809010148,0.0746879652143,0.187555596232,-0.0119810616598,0.0602006837726,0.0998398065567,-0.00571088958532,0.00770891644061,0.259387910366,-0.054094273597,0.0744099244475,0.156374126673,0.0734408274293,0.110444158316,-0.0396628826857,0.0290136896074,-0.00450117047876,-0.0275836624205,-0.00663492549211,0.121119245887,-0.0816176459193,-0.0735213309526,-0.0129104889929,0.179595202208
"hy~",-0.186722099781,0.383639127016,-0.123616300523,-0.0772448480129,0.562540352345,0.00382421910763,0.321949571371,-0.105104655027,0.0648505091667,-0.0181477889419,-0.0327482484281,0.2567281425,0.0923216044903,-0.143966853619,-0.00937914662063,0.125591143966,-0.106373660266,-0.136209875345,0.0602312684059,-0.242211967707,-0.22117741406,-0.567078411579,-0.0672609508038,-0.20301233232,-0.303826361895,-0.157197102904,-0.199731215835,0.15353551507,0.311777114868,-0.48836556077,-0.107971169055,-0.197538077831,-0.0238215737045,-0.338170856237,-0.0854216441512,0.0373299866915,0.463976383209,0.014726428315,0.487540304661,-0.34253808856,0.427134782076,-0.320242732763,-0.0261698234826,0.25083693862,0.248336330056,0.304622679949,0.227015674114,0.256060510874,-0.677244365215,-0.107634872198,0.139461681247,-0.605042397976,0.317354559898,-0.342666566372,0.253639101982,0.511859118938,-0.00150854839012,-0.516599774361,-0.429800570011,-0.708724796772,0.31381765008,0.0583250634372,-0.410046100616,0.199874714017,0.0138368541375,0.393147945404,0.257404118776,-0.724804222584,0.0351436845958,-0.108641840518,-0.194630682468,-0.266799986362,0.105742909014,0.20869602263,-0.433600455523,0.13178190589,0.582364678383,-0.312187820673,0.177531450987,0.217670723796,0.0660736635327,0.139435216784,0.383563667536,-0.388779610395,0.339705735445,0.00460106739774,0.00756160402671,-0.0108824186027,-0.414752304554,-0.307509094477,0.21911329031,0.659811317921,-0.32411891222,0.400195717812,-0.254163563251,0.220413357019,-0.309290707111,0.798628747463,-0.449930161238,-0.262399047613
"g"",0.428771167994,0.300194144249,0.285831987858,0.595283389091,-0.0211099088192,0.126827687025,0.0109592676163,0.258507937193,0.102697379887,-0.147207185626,0.105199024081,0.0127287879586,-0.492658227682,0.24897493422,0.358973443508,0.497634738684,-0.192381128669,-0.116368316114,0.32883259654,-0.203733533621,-0.447845309973,-0.288367331028,-0.189119577408,-0.213348045945,0.307593971491,0.277295380831,0.169599235058,-0.140230104327,-0.12071057409,0.0219388660043,-0.359996557236,0.0792058557272,-0.0950593054295,0.0213755946606,0.366987138987,0.0608306117356,0.719628512859,-0.205336809158,-0.615032076836,-0.380774974823,-0.0107214488089,-0.705943286419,-0.0447592586279,0.185511574149,0.0762224420905,0.407492011786,0.369758307934,0.196652919054,-0.336811691523,0.387174278498,-0.322565019131,-0.0139937195927,-0.21909289062,0.100753441453,-0.0935629308224,0.32636654377,-0.517519652843,-0.560382306576,-0.188063785434,0.282300561666,-0.111744083464,0.32731834054,0.139660701156,-0.600764274597,0.056300278753,-0.592172503471,-0.174144461751,-0.753398120403,-0.0758755430579,0.691167652607,0.317946851254,-0.0891450867057,-0.295734018087,-0.546423375607,0.0494840294123,-0.0639529526234,0.34109094739,0.0620023831725,0.395016759634,0.0306759960949,0.0917796418071,-0.150776863098,-0.302002191544,0.2762786448,0.0729288682342,0.017177214846,0.0951808691025,0.125210732222,0.436376541853,-0.125466957688,0.163162842393,-0.210281640291,-0.0240284353495,-0.0984545052052,0.172764509916,-0.410277038813,-0.22357994318,0.255472332239,0.124951474369,-0.304797142744
"u7~",-0.0908776670694,0.099929869175,-0.319115906954,-0.0961555838585,-0.126365348697,0.135925889015,-0.284697651863,0.000466994853923,-0.0417166016996,0.168486773968,-0.0156887788326,0.142162963748,0.284362763166,0.00586698995903,0.27378308773,0.0308601744473,0.107684545219,0.338029950857,0.121796771884,0.179456785321,0.311359733343,0.29520958662,-0.440441340208,-0.161786064506,0.228432133794,-0.176744133234,0.0918130502105,-0.131696358323,0.0408922620118,0.002976287622,0.408160060644,0.179998233914,0.578426063061,0.0882288366556,-0.347083479166,-0.501145601273,0.180257886648,-0.300916701555,0.0474461466074,0.124979369342,0.118992902339,0.186031088233,0.213538452983,-0.356028050184,-0.156192064285,-0.263856470585,-0.431136965752,0.0517290830612,0.17446577549,-0.152593046427,0.203880146146,0.398019582033,-0.160925403237,-0.10875608027,-0.185826465487,-0.185769230127,0.178831771016,-0.357218772173,0.334693461657,-0.136505156755,-0.16284956038,0.231881126761,0.0331678874791,0.0107614798471,-0.0237642452121,0.00871901214123,-0.175639137626,0.507563769817,-0.345048397779,0.409595936537,0.399166494608,-0.349331319332,0.2642583251,0.189628154039,0.171341881156,-0.144520521164,0.242730036378,-0.0833517313004,-0.423399180174,0.496025800705,-0.0908551365137,-0.0461226738989,0.204991027713,-0.452913731337,-0.125477313995,0.410417675972,0.0272248778492,-0.0887815132737,0.00317293219268,0.402824640274,0.158611476421,-0.108347266912,0.12417319417,0.190330564976,-0.208620876074,-0.196100533009,0.184517174959,-0.14612364769,-0.0167675781995,-0.12771423161
